180 100
Camphor -0.0033336799 0.0030023195 -0.0019186044 -0.00051434216 0.0023451324 -0.000183822 0.0022435416 -0.0001537133 0.0036532725 0.0032705273 -0.00029166497 0.00086673617 0.0033933248 0.0031830547 -0.0009287714 -0.0010930896 -0.000119875185 0.0021167742 0.0007116743 -0.0029636216 -0.00028347998 0.0017962779 0.002089481 -0.0022217715 0.001828465 -0.0012251151 -9.5774114e-05 -0.0015790298 -0.0010066408 0.0036859405 -0.0015128272 -0.0010197042 -0.0033822604 -0.00213683 -0.003709196 -0.0006876866 0.0015178598 -0.0024294404 -0.0008875769 -0.0024728205 0.0030343083 0.0018418249 0.0017038778 0.00097584276 -0.0012411503 0.00025050243 -0.0012556827 -0.0014409194 -0.002970713 0.0010368475 -0.0030210335 0.0036617275 -0.003131783 0.0015292894 -0.00084054866 -0.0020947738 0.00013288946 0.0008384119 0.00066660036 0.0013831225 -0.0016849947 0.0013081515 0.003033784 0.0016268394 -0.0015178781 0.00013404331 -0.0028485449 0.0017917881 0.0034324848 0.0025067455 -0.003848135 -0.00094146386 -0.0019299769 0.00051703263 1.5348292e-05 -0.0005995484 0.0036001457 0.003157824 0.0005722996 -0.0012880763 -0.003210865 0.0019323584 0.0031539197 -0.0031895344 -0.0016403338 -0.0031137555 0.00047263305 0.00083186757 -0.0013308161 -0.0012029195 0.0035567775 0.0014923471 0.003440796 -0.003136145 -0.00045031367 -0.0029753842 0.00078352774 0.002955048 -0.0016117975 -0.0007502977
n-Amyl ether -0.0031353117 0.0010800984 -0.0005286028 0.0007371459 -0.0018245161 0.0022213676 0.00012352048 -0.00011155375 0.00035987486 0.0019148815 0.00043121894 0.0025543738 0.0011462255 0.003143492 -0.0007226338 -0.0005906511 0.0011490909 0.0028909512 0.0015104124 0.0016946659 -0.0016011726 0.00013171938 0.0018088975 -0.0042328546 -0.0014124921 -0.0035117182 0.0026711621 -0.00091868424 -0.00074798305 0.0022388864 -9.985641e-05 -0.00089915545 -0.00083904574 -0.0019323829 0.00082898495 -0.00013854486 0.0024142226 -0.0016659743 -0.0013565847 -0.00071688334 0.0017629153 0.0029569487 -0.0007577599 -0.00034064846 0.0003265382 -0.0003949889 0.00018041674 -0.002945431 -0.0017722041 -0.0010999917 -0.0014375588 -0.0007571624 -0.0014944868 -0.00073345477 0.0018139713 -0.0018046404 0.0021151346 0.0027363196 -0.00017418156 0.004568459 -0.0009777707 -0.0024056656 0.0014571479 0.0016587138 -0.00016514254 -0.0003406383 -0.0045887814 0.0015375282 0.00041918253 -0.00017735692 -0.0030610755 0.0011158449 0.00019729296 0.0011603398 0.0005399058 -0.0020691298 0.002353849 0.005299421 -0.0004600211 -0.0035219023 -0.0010747912 0.002066642 0.00075628416 -0.0013701331 -0.0012095701 -0.0044243555 6.811982e-05 -0.00017026831 -0.00074860296 -0.0013928681 0.0037198556 0.0024025363 0.0022527452 -0.00156812 0.0035446205 -0.0014361684 0.00010402759 0.0040465966 -0.0018872097 -0.00075024524
Ethynol -0.0034648739 0.003662478 -0.005047887 0.00068903295 -0.00056092767 -0.0017528133 0.0010487768 0.0017630786 0.004359818 0.006204526 -0.0020878748 0.001977571 0.0030949032 -6.454997e-05 -0.0040658014 0.0016755993 -0.00087402156 0.003877303 -0.0016793659 -0.0032955573 0.0025785929 0.0043242523 -0.0010978733 -0.00023746071 -0.0003400799 -0.0054611564 0.0015508635 -0.00025059478 -0.0007252268 0.0014709043 -0.0008019861 -0.0012496696 -0.0054264995 -0.002484784 -0.0034747128 0.0032210543 0.00022468103 -0.0027068392 -0.0014792683 3.806424e-05 0.005021571 0.003797546 0.000694998 -8.163613e-05 -0.0015720146 -0.00061043457 -0.0027200214 0.001266809 -0.0042080116 1.0167714e-05 -0.0034437242 0.0012618438 -0.00033156638 -0.0007522856 0.0016055985 -0.00151451 0.0034618792 0.0005725591 0.0029802776 0.0033029132 0.00027431533 -0.00031194155 0.0038140293 0.004647677 -0.0030195666 -0.00018507759 -0.0053461175 -0.00027345028 0.0025040754 0.0009022527 -0.0052294894 0.0018770256 -0.0028941375 0.0020455064 0.000600326 0.0027554147 0.0058314838 0.001270734 0.0011607123 -0.0045087263 -0.0038352448 0.0004981539 0.0016891465 -0.004046263 -0.0023915113 0.00028829247 0.0033111663 -0.0020791795 -0.0011670571 -0.0020868154 0.0062519014 -0.0012692835 0.0068814396 -0.003258881 -0.0025349716 -0.0023533134 0.002082918 0.0026206903 -0.0041144174 0.0011334704
Ketene -0.0024414146 0.0030498167 -0.0014296405 -0.0005357552 0.0020175795 0.00021778967 0.0016266117 -0.0005544119 0.004081128 0.0042059626 -0.0011542347 0.0004236699 0.0036534788 0.0020036222 -0.0015737739 -0.0008860337 0.0005318456 0.002138715 0.00040641992 -0.0028631843 -0.00060497824 0.0023397107 0.0011335437 -0.002525667 0.0014736818 -0.0019334285 0.0009146316 -0.0008770122 0.00010416738 0.0026740134 -0.0021532243 -0.0008807364 -0.0027185665 -0.001960183 -0.0023625954 -0.0005216889 0.0012970851 -0.0036208571 -0.0008704641 -0.0018588377 0.0029961686 0.0028101716 0.0013546131 0.0005638595 -0.0015295595 0.0013579907 -0.0008404377 -0.0014985513 -0.0032676307 0.0005424518 -0.003741452 0.0032888353 -0.0036690999 0.001224058 9.7146025e-05 -0.001399379 0.00038387347 0.0008621069 0.00076151127 0.0011812483 -0.0021366645 0.0009569415 0.002574744 0.0015334076 -0.00091265887 0.00072105124 -0.0015724204 0.0029597133 0.0035760466 0.0017355075 -0.0041559185 2.581313e-05 -0.0015372568 -7.5303644e-05 0.0007592717 -0.0009771849 0.004100466 0.004266327 -0.0005596865 -0.0014632503 -0.0032261307 0.0025655832 0.0037209024 -0.0027501816 -0.001866836 -0.0021525717 7.985059e-05 0.0009696453 -0.00034385145 -0.00094105443 0.0033665989 0.0021976498 0.003994478 -0.0033410517 1.709431e-05 -0.0031863735 0.0031123725 0.0040761493 -0.0014860051 -0.00067272095
Glyoxal -0.0032848704 0.0033260682 -0.0021606418 6.71205e-05 0.0021264125 0.00085510005 0.002818836 0.00041659287 0.0041575376 0.0031968157 -0.00085707445 0.0020209344 0.003004113 0.0027881374 -0.0011623886 -0.00045153842 6.5566295e-05 0.0021060954 0.0008761822 -0.0034769585 -0.000282413 0.0030270494 0.0019486787 -0.0021678554 0.001780784 -0.0026178495 0.0003286188 -0.0002933966 -0.0009792581 0.0038163594 -0.0019311539 -0.0008679234 -0.0035911724 -0.0023700995 -0.0032963213 -0.00016364787 0.0014552006 -0.0028050998 -0.0009723776 -0.0023151145 0.0028268602 0.0032491419 0.00036659295 0.0009589271 -0.0016014958 0.0007360484 -0.0019441921 -0.0012612399 -0.0026178004 0.0012688283 -0.0023998288 0.0042630136 -0.003877783 0.0027367072 8.0484315e-05 -0.0021044083 0.0004238777 0.0011281581 0.0013981648 0.0012125431 -0.0023947572 0.0016671792 0.0027590692 0.0016308882 -0.0016403947 0.00072515453 -0.0024426149 0.0013806277 0.0028490555 0.0016082204 -0.0031037205 -0.00016925624 -0.0012670422 0.00050835486 0.00020221533 -0.0011976119 0.0033928917 0.0028980903 -0.0009128197 -0.0010234657 -0.0032797316 0.002240147 0.0036449234 -0.0023465988 -0.0017918057 -0.0025487575 0.0004211558 -0.00018571489 -0.00042634894 -0.0015053616 0.0036321194 0.0019183479 0.0032576667 -0.0034086667 0.0003319288 -0.0027189497 0.0020004283 0.003647116 -0.0023879425 0.00018609603
Acetaldehyde -0.0019665349 0.0026513205 -0.0036861715 -0.0012632767 -0.0010256169 -0.0010645946 0.0017825861 0.0020931135 0.0033047819 0.0017436037 -0.0016910279 -0.00090281107 0.0061296234 0.0021827419 0.0017540923 0.00035181665 0.0015827565 0.0017431088 0.0011150159 -0.004893859 -0.003513434 0.0013910511 0.0052359533 -0.005369162 0.0030694208 0.0007893873 0.0031469676 0.0013360444 0.0010333162 0.0023562328 -0.0012513653 -0.0015507459 -0.003576085 -0.0057069226 -0.002932684 -0.0015823239 0.0023776619 -0.0041186996 0.001008478 -0.0054063736 0.0032916428 0.0034335458 0.0040158015 0.0010600854 -0.004085183 -0.0018310677 -0.0037152271 0.0013866116 -0.0009659807 -2.097354e-05 7.180808e-05 0.004493092 -0.0004646637 0.0016523682 0.000435731 0.00024210647 0.0021579112 -0.0014569456 0.0012375482 -0.00045904232 -0.0013178926 0.0041215657 0.0029975083 0.003068093 0.0024905044 0.0015094666 -0.0033743957 0.0015193697 0.00068909925 0.005070083 -0.0062267296 -0.0008402066 -0.004214887 0.00021977161 0.0029537554 -0.0028981864 0.0029053807 0.0036877263 -0.0014618717 0.0015812054 -0.00048170425 0.005015806 0.0048420187 -0.0035815802 -0.00045779225 -0.0020632779 0.0027017917 -0.0029126145 -0.003910804 0.0012229522 0.0050339154 -0.0013303147 0.00282308 -0.005998289 0.001081055 -0.0034528063 0.0015241913 0.0023274152 -0.0039356174 0.0016428304
Ethenol -0.0027606161 0.002387785 -0.0021462946 -0.00076118036 0.0010116971 0.00022699432 0.0026065125 -0.00074795354 0.0029311455 0.0037232465 2.1073115e-06 0.0017151674 0.0033765873 0.002518329 -0.0015273466 -0.00011366416 0.0005705048 0.0024203744 0.0006001204 -0.0026583576 0.00014693008 0.0028567007 0.0017409043 -0.0028232231 0.002428228 -0.0024546625 0.00035255606 -0.0012140907 -0.0008088442 0.0033467289 -0.002647052 -0.00092077407 -0.0027985633 -0.0019859737 -0.0033605546 0.00035246246 0.0021720147 -0.0029073525 -0.0006345641 -0.0017946528 0.0038772826 0.002993755 0.0010575654 0.00031009375 -0.0018085507 -5.0829723e-05 -0.00066944433 -0.001380323 -0.0034483257 0.0017215358 -0.002613249 0.003952638 -0.0031585512 0.0017269133 -3.7014815e-05 -0.0020514757 0.000898803 0.0009855253 0.0013283654 0.0018124769 -0.0023001265 0.0020706954 0.002307843 0.001609932 -0.0008767719 -0.00051540945 -0.0019188881 0.0022882398 0.0019669747 0.0022813766 -0.0031244038 -0.00030832668 -0.0012139729 0.0007381778 -0.0001824952 -0.00018860353 0.0026530996 0.0037150658 -0.00048791507 -0.0016025305 -0.0034242119 0.0017158366 0.0027981396 -0.003175626 -0.0017295943 -0.0027514729 0.00010927314 0.00057145464 -0.0017622609 -0.0005771 0.0036157432 0.00091782026 0.0034567358 -0.0032064975 0.00023390252 -0.0032925576 0.0017880205 0.003457139 -0.0013272268 -0.00072675286
Ethylene oxide -0.0013319683 0.00040077782 -0.0006059723 8.267449e-05 0.002514179 -0.00090669066 0.001053941 0.0012426802 0.002023217 0.0025376177 -0.0003291077 0.0021237668 0.0022958259 -0.000585707 -0.0014607717 -0.00024433798 0.0024088523 -0.0002523888 -0.0008150818 -0.0030462667 0.00041796686 0.004082018 -0.00049246714 7.3140116e-05 0.0013679123 -0.000720028 -0.0017240158 0.00030003497 -0.00028842475 0.0012395255 -0.0024225875 5.7272566e-05 -0.0031067862 -0.0001562654 -0.00033164723 0.00010594004 0.0017955945 -0.00205562 0.0014954947 -0.0006590196 0.0029549021 -0.00018732696 -0.0011738321 -0.0014692751 -0.0013136809 0.0005280045 -0.0014274033 -0.0027859644 -0.0034112104 -0.0014519788 -0.0015243482 0.003841523 -0.0026320901 0.0015196592 0.0005730295 -0.0026525508 -0.0006174897 -0.00056089385 -0.00031085248 0.00032971668 -0.0017716795 0.0020492151 0.0005044952 0.0025340065 0.00030849464 0.00040111216 0.00033627637 0.002385318 -0.00016748319 -9.3313494e-05 -0.0019430775 -0.00038561676 -0.0022722993 -0.00094775524 0.0019339649 0.0017642729 0.00044428557 0.0012836263 -0.0023287425 -0.0014972812 -0.0014065711 -0.00047144806 0.0044097276 -0.00056213996 -0.0020146717 -0.0004753057 0.00081063574 6.911919e-05 0.0007148478 -0.0011227367 0.0012566581 0.00065364194 0.0025889713 -0.0008659707 -0.0010351092 0.000367062 0.003622363 0.0010377282 -0.0021259466 -0.0022128131
Methyl formate -0.00048971147 -3.0464493e-05 -0.00064062537 0.0013761333 -0.00019850116 -0.0020907286 0.0021405413 -0.000653158 0.0016319487 0.00084396935 0.002191327 0.00059302174 0.003768126 -0.00047541337 -0.00034656026 -0.0013451421 -0.0015526308 0.0032766357 0.0005651829 -0.0028290935 0.00088536035 0.0032962137 0.002620422 -0.00011608191 0.0006535649 0.00018184213 0.0020146435 -0.0013265321 0.0011164374 0.00087590853 -0.0022818788 -0.00025244916 -0.0014587318 -0.0034581812 -0.002885334 -0.0005506436 0.0022069323 -0.0037805864 -0.0006770756 -0.00072971266 0.003240494 0.0021889792 -0.0016627843 0.0012717652 -0.003024696 0.0011419164 -0.00020879312 -0.0008226687 -0.001514748 -0.00038716383 -0.00044541992 0.0013632522 -0.0021533794 -0.00039993675 0.00055760186 -0.0024136105 0.0013657667 -0.0011642291 9.6253774e-05 0.002539991 -0.00012498992 0.001210214 0.0020446565 0.0018015327 -0.0016237611 -0.0018509068 -0.002501118 0.003498921 8.759387e-05 -0.0010296021 -0.0028014698 0.00012691556 -0.0010145559 0.0018047498 0.0010616983 -0.0016452594 0.002366255 0.001886908 -0.00016381631 -0.0022778227 0.00023887736 0.0024105723 0.0025316249 -0.0011424267 -0.0018481062 -0.0028683646 -0.0016387912 -5.905698e-05 -0.0015751787 0.000570173 0.002902386 0.001654063 0.0018843085 -0.0016900229 0.0016356591 -0.002014101 -3.0107238e-05 0.0026075407 -0.0020158358 -0.0014270343
Acetic acid -0.00017572558 0.00031035338 -0.0022988368 -0.0017457411 0.0003494236 -0.0017776476 0.0016811874 7.324982e-05 0.0013201634 0.00308461 -0.0017566875 -0.0012279807 0.00048764033 -0.00062951056 0.0015667279 -0.00010120771 -0.0010768374 0.002759629 0.0019132193 -0.0014331561 0.00031615025 0.0009711869 0.0025418468 0.00010917755 0.0008702868 0.00026240555 -0.00058652106 -0.0010866132 0.00012267753 -0.00023202748 -0.003724783 -0.0027913435 -0.002999801 -0.0034832961 -0.00043573417 0.0016839769 0.0018524468 -0.0009903604 0.00036506425 -0.003439704 0.0007767492 0.0004442837 0.0018078102 0.00055879704 0.00058694975 -0.00027342024 -0.00080335996 -0.0017670162 -0.002500752 0.0029179435 -0.00026371406 0.00286618 -0.001326209 0.0020073014 -0.0003474371 -0.0029747102 0.0012717061 -4.982244e-05 0.0031755138 0.0012267566 -0.0025221014 0.000223266 -0.0007971188 0.0019274242 0.00037761763 0.0016775705 -7.313909e-05 0.00046464158 0.0017757791 0.0005968536 -0.0012762912 -0.001488145 0.0011935991 0.0006182375 -0.001178493 -0.0010508363 0.0029665045 0.0027989156 -0.000120969955 -0.0013427759 -0.00047649146 0.00010000803 0.00237512 -0.0020338723 -0.0012588261 -0.0014846231 -0.0008718852 0.0011219155 -0.00079437805 -0.0009594252 0.0044249617 -0.00019630483 0.0006312469 -0.0014820229 0.0005343961 -0.0012385993 -0.0006177064 0.0011303864 -0.00033626473 -0.001143656
Monomethyl carbonate 0.00067831995 0.0044689723 -0.0020912243 0.0026272107 0.0025253873 -0.00071554276 -0.002004803 0.0025974016 0.002618551 -0.0018016499 -0.0006015425 -0.0024104267 0.0027490698 -0.0011098634 0.0003335787 0.00067651266 0.0032960803 0.0006239111 0.0035223525 -0.0041798614 -0.002112512 0.0019302852 0.0002718865 -0.0026289155 0.0011517643 -0.0037452641 0.00074416393 0.00017438704 0.0016023715 0.003022356 0.001697984 1.1266675e-05 -0.00047047972 -0.0015320819 -0.0024422323 6.558783e-05 0.0005746249 0.0011067026 0.00014158511 -0.002063707 -0.0019779324 0.002538061 0.0023988362 0.0010466644 -0.0031000085 0.002009185 0.00033369428 -0.002264706 -0.0031308737 0.00075152394 -0.0013225143 0.0041443994 -0.0039067753 0.004389228 0.0020559665 0.00104013 -0.0018572928 -0.00019122194 0.0008916229 0.0023186298 9.0109745e-05 0.00060389563 0.0045936867 0.0011404599 -0.002986515 -0.00019018333 -0.0021196909 -0.0016826801 0.00081295375 -0.0015473042 -0.0018900837 -0.00026414657 0.0013148363 0.00030927884 0.00064321933 0.00089205476 0.0052685696 0.0014684362 -0.0014660581 -0.0015021174 0.00032576485 0.0007401421 0.0020724253 -0.0020089538 9.898915e-05 -0.003622596 0.001838066 0.0009080938 -0.0014960932 -0.0013998257 0.00088204484 -6.966093e-05 0.0007500308 -0.0033685963 0.0029660736 -0.00046733246 0.0006391378 -0.00052309874 0.0010038812 -0.0005237192
Ethanol -0.005893845 -8.1751496e-05 -0.0024805586 -0.003574481 0.0010126976 0.0008171807 0.0016761859 0.00092285045 0.0037616189 0.00442898 0.0001209797 -0.00041623865 0.0025586518 0.004416036 -0.0029241971 -0.002567585 -0.001584033 0.0043833703 0.0016859033 -0.0018538404 0.00034809212 0.00049280643 0.0033716697 -0.0009237646 -0.00014386668 -0.001671759 0.0029041644 0.00092986657 -0.001095283 0.0053794496 -0.0039264895 -0.0008454271 -0.0014889317 -2.2516431e-05 -0.0060686357 -0.0023326087 0.0005144173 -0.0034534119 -0.0020501716 0.0011419271 0.0034213597 0.0037253245 0.0029181181 -0.0011182707 0.0013320659 -0.0006011702 0.0019725747 -0.00045198225 -0.0011974772 0.002155596 -0.0033992399 0.0011952722 -0.003234878 -0.0009525695 -0.0019828351 -0.005154717 0.00063618575 0.0019142083 0.00052056287 -0.0004585186 -0.00051878626 0.0039021703 0.0052719302 0.0007334468 5.1116494e-05 -0.0008879063 -0.0005283775 0.00045486324 0.0057523428 0.00045684222 -0.004384441 0.00016168578 -0.0039860457 -0.0036484585 0.002210097 -0.0033571902 0.0050663184 0.0009310783 0.0005339733 -0.0047646686 -0.0038712756 -0.00043126437 0.0022006796 -0.001576304 -0.0013972339 2.882102e-05 0.0025321906 -0.0023003188 0.0010751546 -0.0009979341 0.0040215976 0.003933386 0.0034097312 -0.0043969764 -0.0027729287 -0.0048809373 0.004132966 0.00018047635 0.00016116709 -0.0040973593
Dimethyl ether -0.0058468054 0.000539966 -0.003001226 0.0016639497 0.00021277853 0.0024994707 0.0011070946 0.0016568585 0.0009310396 0.0024190228 0.00017516092 0.0028994137 0.0014403526 0.0017442979 0.00020752555 0.0020823434 -0.00013920711 0.003469805 -0.00071373454 -0.0015664302 -0.0015096858 -0.00025246097 0.0032090612 -0.0025196127 -0.00014696126 -0.0015498562 0.001437193 -4.7058522e-05 -0.0018970314 0.0013186078 0.00088108255 0.00020890764 -0.00092354434 -0.0013427464 -0.0028188357 -0.0024732589 0.0015449317 -0.002107015 0.0014235807 -0.0014764142 0.00084789563 0.0037271827 -0.0012984547 0.003325463 -0.000593917 0.00081027095 0.0019542985 -0.0030710069 -0.0017695312 -0.0008377788 -0.00010711302 0.0032483265 -0.004300346 -0.00036781453 0.002521845 -0.0029565126 0.0029160052 0.0014669952 0.0011120458 0.0034804777 0.00018414213 -0.00087316765 -0.0006904953 -0.0017020338 -0.0019316633 -0.0018555791 -0.005208153 0.0022290437 -0.0017625474 0.00024197456 -0.00493894 -0.0007990015 3.0325447e-05 -0.0006680248 0.0021979208 -0.0018742718 0.001293927 0.005282357 6.849037e-05 0.0002410206 -0.0029307648 0.0009676032 0.0017826132 -0.0006637503 -9.969436e-06 -0.005517957 0.00035869432 -0.00079814624 0.0021057904 -0.0009932634 0.002668763 0.0019738309 0.0027954557 -0.004297219 0.002359474 -0.0035719485 -0.00039955715 0.0039130608 -0.0038130884 0.0023491918
ethyl hydroperoxide -0.0013935808 0.0043041394 -0.0029644365 3.386885e-05 0.0033026205 -0.0015646185 0.004847517 0.002570649 0.0011077741 0.0009075212 -0.0019140289 -0.0013874596 0.0026118767 0.0022709037 0.00033832403 -2.0341808e-05 -0.0033412462 0.0047172788 -4.8885682e-05 -0.0025295198 -0.0017210875 0.003970144 -0.00035182058 -0.0035995618 0.0024964947 -0.0007047491 0.00396971 0.0009935182 -0.00058396783 -0.0008373381 -0.0011121439 0.002077878 -0.003734617 -0.00017420892 -0.0031613216 0.00048917223 -0.00022987477 -0.002682292 -0.0025404345 -0.00031944457 0.0004779717 -0.00061245234 -0.0010878093 -0.00056886504 -0.0032492522 -5.468605e-05 -0.0015544955 -8.513462e-05 -0.0047136447 0.0013635282 -0.0041599306 0.0040810513 -0.00030057013 -0.0005610647 0.001996031 -0.004028298 0.0026983784 -0.0008449858 0.0001861659 0.0030204533 -0.001400117 -0.0012256972 -0.00091723 -0.00043608222 -0.00421912 -0.0018476956 -0.0017156156 0.0008012337 0.00014984042 -0.0015015946 -0.004278086 -0.000973432 -0.0031688318 -0.000112778325 -0.003409781 -0.0017500025 0.00068887306 0.0022523156 0.0008931233 -0.00030581906 -0.0025774376 0.002284224 0.0046178927 -0.0012102254 -0.0010108136 -0.0012001029 0.00078922586 -0.0018443344 -0.0022671684 0.002032073 0.0019522548 0.0037309367 0.0012041993 -0.002262956 -0.00024559704 -0.0023739606 0.0032128913 0.003049543 -0.00040456263 2.3452565e-05
Peroxide, dimethyl -0.0011897492 0.0021655613 -0.0011124358 -0.00029920353 0.0012094874 9.622141e-05 0.0018390206 0.00045684297 0.0018500617 0.002130848 -8.823915e-05 0.0004239291 0.0014633222 0.0013892594 -0.0010173925 -0.0006318674 -0.00018411232 0.0010575396 0.00011358303 -0.0022393696 -0.00086527533 0.0014353836 0.0013904565 -0.0017432213 0.0010608223 -0.0015313717 0.00079413375 -0.0005877639 -0.00058696803 0.001669924 -0.0017501928 -4.2974203e-05 -0.0011969978 -0.00187881 -0.0019245843 -0.00043565928 0.0009063533 -0.0018450249 -0.00053122867 -0.0014039694 0.0018249428 0.0010753412 0.00050630205 0.00070662727 -0.0011810431 0.0016236603 -0.0009782718 -0.0009532069 -0.0019925188 0.00082758314 -0.0015346425 0.0024500198 -0.0023449913 0.0011340694 6.373087e-05 -0.0016203802 0.00033401215 0.00092721917 0.0012509878 -5.4969685e-05 -0.0012085803 0.0016726194 0.00088348443 0.0011020476 -0.00022179853 0.0002508972 -0.001333854 0.001526538 0.0017700949 0.0006019015 -0.002225594 7.6796314e-05 -0.0016425404 -0.00027359134 -0.0001730203 -0.00062631676 0.0022892226 0.002466942 0.0001725541 -0.00080465805 -0.0022731244 0.0011513134 0.0019315472 -0.0018734714 -0.0011056366 -0.0017239008 6.106932e-05 -5.8753103e-05 -0.0011393068 -0.0007442382 0.002043712 0.00036757402 0.0026925232 -0.0014726903 0.00019586975 -0.0021520935 0.0016732038 0.0019817618 -0.0015559593 -0.00014043238
1,2-Ethanediol -0.0011290516 0.004107482 -0.0016343091 -0.0005454583 0.0029702722 -0.002378814 0.0034850284 0.0032250944 0.003488225 0.0030248566 -0.00015671847 -0.00013649635 0.00419868 0.0038126465 0.000454957 -0.0038208165 -0.0033044992 0.0019338883 0.0005328986 -0.005643705 -0.00076089054 0.0016588485 0.0025942354 -0.004353135 0.0041028457 -0.004069338 -0.0004692762 -0.0040404554 -0.0020939452 0.0042014746 -0.0014620856 0.002247476 -0.0044489554 -0.0040529943 -0.0033972447 0.0012516779 -0.0010087991 -0.0047751586 -0.003595441 -0.0037041646 0.0027661952 0.0014171716 -0.0015525594 0.003327732 0.0012503535 -0.00016928953 0.00026558092 -0.0002818883 -0.0027657421 0.0027722416 -0.0035205528 0.0014102731 -0.0047074575 0.0052851695 0.00053567835 -0.0042205327 -7.9570105e-05 0.00037879043 0.00081653055 0.0028922074 -0.0027885693 0.0028310844 0.0049813204 0.0053643915 3.514703e-05 -0.0014782834 -6.1514016e-05 0.0037379325 0.0028724745 0.0025472878 -0.0050076703 0.0011921255 -0.0011398172 -0.0009474134 0.0031684234 -0.00343712 0.0011401204 0.006347907 0.0010287918 -0.0015629892 -0.001410345 0.0018297164 0.0019532535 -0.0035957515 -0.0032165803 -0.005661454 0.0016731791 -0.001937123 -0.002202062 0.00078991044 0.0015057907 -0.00019687586 0.0033426953 -0.001602927 0.0022509848 -0.0034358758 0.0045307116 0.0041022673 -0.0007128868 0.00047373533
Cyclopropanone -0.003104574 0.0022213839 -0.0038626716 -0.0014498633 0.004284066 0.0018295663 0.004565043 0.0017011543 0.003377596 0.0051135197 -0.0004156063 -0.001674989 0.005541441 0.0048262468 -0.005017667 -0.002082942 0.0014829363 0.00065499585 -0.0016385082 0.0006473425 -0.0011107936 9.026596e-05 -0.0014941723 -3.1312153e-05 0.0030462309 -0.005678054 -0.0016408402 -0.0026606962 0.0023108858 0.0030448074 0.0011725737 -0.00040605894 -0.0015606896 -0.00063794793 -0.0005161365 -0.0021446212 0.0010247395 -0.004512296 0.0010475303 0.00012182196 0.005727857 0.004862974 0.00081516 -0.0027453476 -0.0043753227 0.0023238384 -0.0033191382 -0.0005507648 -0.0038572093 0.0020991464 -0.0048024617 0.0014294091 -0.0026586 -0.0010424799 -0.0029235655 -0.0034844908 0.0025950463 -0.0022740376 -0.00013574368 0.0015359115 0.00046202 0.0014988034 -0.00095797115 0.005153682 -0.0041338187 0.0032012581 -0.0024408652 0.0031464542 0.005194438 0.0028160452 -0.0032165598 -0.0029882728 -0.004331691 0.0008201138 -0.0030942918 0.001200502 0.0025998773 0.0059447526 -0.0028381504 0.0015995947 -0.0030324697 0.0042751087 0.005097721 -0.0034340476 -0.002104197 -0.0053111757 -0.00042278512 -0.0007610506 -0.00037203723 -0.004015932 0.004644873 0.0008562419 0.004671151 -0.001627386 0.003969499 -0.0041133575 0.0014860663 0.005400556 -0.004550777 -0.0033054005
Methyl glyoxal -0.0010988471 0.00176415 -0.00054909865 -0.0037231825 -0.0014765321 -0.0014550181 -0.001748034 -0.0026541825 0.0045353654 0.003892773 0.0025096387 -0.00043767339 0.0013601839 2.6909216e-05 -0.002763692 -0.0036517233 -0.0030120842 -0.0006530496 0.001758518 -0.0020040579 -0.0002611426 0.000113489295 0.0031852305 -0.00070369634 0.0024169188 -0.0024834971 0.0017570306 1.8751529e-05 -0.0022565473 0.0017387191 0.0021409984 0.00040518428 0.000146058 0.0017644421 -0.0009596748 -0.0029464278 0.001994798 0.0004884135 -0.0019054441 -0.004225282 0.0015576875 0.002287523 0.00157503 0.0013882421 -0.0016194507 0.004259492 0.0019234366 0.00011788299 -0.0005193703 0.0008373172 -0.0011557462 0.0040658526 -0.00026029893 0.0024269011 -0.0026052669 -0.0015710657 -0.0002489929 0.0030580831 0.0010749125 0.00043290807 -0.0019731284 -0.0014287925 0.00029171017 0.002678046 -0.0013447901 -0.002511321 -0.0045655644 0.0029482518 0.0020624853 -7.67748e-06 -0.001641795 -0.00048060232 0.0018081109 0.00090252695 0.0003092496 0.0011681527 0.0046631475 0.00091522903 -0.0016804613 -0.0039163353 -0.0016117182 0.000447254 0.0050428207 -0.0004565781 -0.0009720795 -0.0014505011 -0.0008480535 -0.0022011674 -0.0016424023 -0.00029191747 1.0264665e-05 0.002413887 0.0018715106 -0.00022538622 0.0022043567 -0.002770243 -0.0024744365 0.0019645083 -0.0030013563 0.00019466883
2-Propenoic acid -0.00011878917 0.00034437515 -0.002607433 -0.0014576501 0.0007995581 -0.0017792851 0.002111317 -0.00024166005 0.0015223399 0.003020663 -0.0016616182 -0.001082756 0.00041340358 -0.0007133856 0.0010484308 -0.0004311304 -0.0010188792 0.0026066103 0.0019638792 -0.0015212148 0.00057118334 0.0011807671 0.0028752664 -0.00021749754 0.0012484117 2.3570192e-05 -0.0005533372 -0.0007893256 0.00014964408 0.00039128363 -0.002928272 -0.0025043662 -0.002891273 -0.0037714012 -0.0002383302 0.0016273231 0.00209069 -0.001003875 0.00050127826 -0.0037573406 0.0008363222 -0.0004570991 0.0018187225 -3.7141144e-06 0.0009037627 8.2484636e-05 -0.00043063617 -0.001912654 -0.0027928362 0.0027310748 -0.00023648748 0.0031160053 -0.0017156542 0.0019642087 -0.0002531888 -0.0025394324 0.0013206609 0.00033289465 0.002662807 0.0011810688 -0.002919897 0.0006902855 -0.00046342937 0.0013889082 -0.00023079399 0.0020232857 1.3855659e-05 0.0010329519 0.0014078101 -3.381511e-05 -0.0011163693 -0.0016680531 0.00075776083 0.00028339247 -0.0011446265 -0.0011547607 0.002783004 0.0030360296 -0.00065745536 -0.0011418606 -0.0006529065 -9.248033e-06 0.0022874658 -0.0020617521 -0.001267172 -0.0013108416 -0.0013085408 0.0010832028 -0.000793399 -0.0013154724 0.0041931695 -0.00025725458 0.0008056764 -0.0020750344 0.00094873516 -0.0012868082 -0.00060084864 0.0015128491 -0.00064226345 -0.0010247704
Propiolactone 0.00014082436 0.00046270387 -8.4730025e-05 0.001910409 0.0014171689 0.0011541544 0.003533936 0.002927385 0.006108278 0.0031928688 0.0003167826 0.0015038827 0.0057045585 0.0025983916 -0.004684884 0.0012100043 0.0029635446 0.0005694404 0.0021618507 -0.0038100122 -0.0026392704 0.00057620264 0.0014534568 -0.004353668 0.0023807704 -0.00475927 0.003323361 0.0013443157 0.0016070029 0.0056817383 0.00031370763 -0.0016371564 -0.0029265387 -0.0028321536 -0.0064566806 -0.003332678 0.0044892207 -0.003420928 -0.0032769218 -0.0015957042 0.0014938491 0.0011575045 -0.0016914324 -0.0025809053 -0.0020984511 -0.0014940817 0.0009950467 -3.7890393e-05 -0.0016813544 0.0010867299 -0.0014057937 0.0026909215 -0.00307207 -0.00095356087 0.0022368398 -0.00055585237 -0.0029332275 -0.00088156987 0.0030369055 -0.00050296274 -0.0025221668 -0.0010936356 -0.0006086044 0.0010479074 -0.0035095837 0.0006146623 -0.005167773 0.0014423551 0.00202649 0.00059506146 -0.0009584278 -0.002531003 0.0016198328 0.00037399237 -0.002706859 0.0007775463 0.006571749 0.0060654543 -0.0002013752 -0.0006198028 -0.0041346485 0.0030149443 0.00076622504 -0.00295323 -0.00091436214 -0.0009116802 -0.0019258796 -0.00071377953 -0.0031522755 -0.0021785346 0.00058338454 -0.0011730259 0.0058077886 -0.004684587 0.003474292 -0.0023633875 0.005173946 0.0015893283 -0.0055953613 -0.0010264874
Propen-2-ol -0.0030051786 0.0022923383 -0.0020577088 -0.0009048499 0.0021327904 6.8762965e-05 0.0021280958 -0.00045522672 0.0032719187 0.0031537707 -0.00039814838 0.0015166688 0.00265134 0.0023504035 -0.0016206969 -0.00063488586 0.0005819473 0.00241515 0.00022661252 -0.003204526 0.00013844456 0.002622622 0.002169001 -0.0018879767 0.001289174 -0.002372068 0.00072202063 -0.0012890554 -0.0012495541 0.003687563 -0.0020078914 -0.0016234888 -0.0031961927 -0.0022215447 -0.0030254978 -0.00057589955 0.001934302 -0.0034942343 -0.0010864995 -0.002000816 0.0039381105 0.0019100219 0.0009477554 0.00083002 -0.0021914064 0.0012862748 -0.001633515 -0.0017841862 -0.003535862 0.001159239 -0.0024671126 0.0028220126 -0.002784142 0.002099619 -0.0004217215 -0.0032380975 0.0009106825 9.8875804e-05 0.002002316 0.0012010481 -0.0019387526 0.0022505983 0.0023218235 0.0018482022 -0.00094324525 0.0011219142 -0.0022311795 0.0020300425 0.00345753 0.0020870108 -0.004295947 6.8912675e-05 -0.0011931048 -0.00038877846 -0.0002533106 -0.00057876506 0.0037326259 0.00316545 -0.00052888086 -0.0010582274 -0.0032548346 0.0009932182 0.0020764298 -0.0023282669 -0.0020770994 -0.0032249293 -0.00021177717 0.00013258522 -0.00080442213 -0.0012651295 0.0032781814 0.0017273932 0.0030779575 -0.0036218918 0.00029064884 -0.003312443 0.0017100767 0.0034712492 -0.0022838057 -0.0012540127
Propanal -0.0028724724 0.0018779504 -0.0038097163 0.0014935111 0.0018554952 0.0014593499 0.0037800528 0.00066799205 0.0012334564 0.0015277406 -0.0011386629 -0.0006426497 0.006146863 0.004727321 -0.0026453445 0.0014765784 -0.002430967 0.0050122254 0.0030893148 -0.0001264466 -0.0033440455 0.00022019306 0.0048783636 -0.0046903975 0.0021997439 -0.0021720196 0.003066832 0.00041582057 -0.003709815 0.0065115085 -0.0034176256 0.0020198205 -0.0016027079 0.00036026136 -0.004508943 -0.0015004574 0.0014939167 -0.0023045752 -0.001612315 -0.00394711 0.0040332526 -0.0005106414 0.0026288105 0.0032226022 -0.0022270884 -0.0008282317 -0.0010054216 -0.0028220497 -0.003419266 0.0022305958 -0.0021636547 0.004502395 -0.0059018447 0.0021821777 -0.0019905185 -0.0009843906 -0.002091174 0.0017836414 -0.00024224547 -0.00201256 -0.0029918689 0.0042800168 0.00071413803 0.004057412 -0.0028221323 -0.0009525381 -0.004564683 0.0011061872 0.0017087873 0.0021533044 -0.0004134138 -0.0027038194 -0.0004429471 0.0022972927 -0.0011683934 -0.0019483967 0.0036308952 0.003792806 -0.0030247557 -0.0012636788 -0.00156737 0.0038709017 0.0052298135 -0.0012999818 0.00077726727 -0.0053786384 0.0024557696 0.0021037124 -0.0016212644 -0.0021321366 0.0041759694 0.0038480803 0.0017948907 -7.912796e-05 0.003364616 -0.004158794 0.0009082011 0.0021195859 -8.479522e-05 0.0019918056
Acetone -0.002898219 0.0027168477 -0.0016899547 -0.0010035451 0.0016637346 0.00031043164 0.0015351993 0.0010070311 0.0043661445 0.0035027438 -7.436184e-06 0.002613491 0.0031049731 0.002103098 -0.001961681 0.00037344694 0.00073849264 0.0014473221 0.0004204217 -0.00350274 -0.0010093492 0.0022662587 0.0009794218 -0.0025425074 0.0017177127 -0.0018976817 0.00075529696 -0.0016306292 -0.0012377808 0.002603634 -0.0021367166 -0.001381244 -0.003295538 -0.0021134368 -0.0029272006 -0.00050415995 0.0010758552 -0.0024979548 0.00020742742 -0.0024750018 0.0037361586 0.003245079 0.0017151693 0.0011776036 -0.0016986066 0.00010978796 -0.001579367 -0.0017055087 -0.0023891958 0.0012888572 -0.0030338503 0.0031162114 -0.0031870734 0.0018241124 -0.00038964156 -0.0024289088 0.000113484064 0.0011060083 0.0016183591 0.0011110677 -0.00238457 0.0014572609 0.0018354778 0.0022424662 -0.0010307955 0.00044703853 -0.0019967384 0.0016056396 0.0026148388 0.0027239367 -0.0028229568 0.0003163677 -0.0010677257 0.0006550071 0.0002836858 -0.0014959194 0.003310786 0.003672216 -0.0007408587 -0.00043676724 -0.0030980564 0.0016582127 0.0033649725 -0.0031075221 -0.0021491563 -0.0025659453 0.0009081139 0.0010155472 -0.0019761615 -0.000754065 0.0015595465 0.0019415219 0.0035443883 -0.0025972107 0.0003645017 -0.0031154694 0.0017610632 0.0028599529 -0.0016779586 -0.0006125541
Trimethylene oxide -0.0015045613 0.002132454 -0.0011093107 -0.00029609594 0.0012580242 -0.00018707155 0.0016807783 -0.00019860841 0.0021359753 0.002328938 -0.00060223165 0.00047685546 0.0018601617 0.0010420599 -0.0009354152 -0.0007799654 0.00052920025 0.0010324967 -0.00014566425 -0.0018693369 -0.0007996354 0.0017089108 0.00074192876 -0.0012630564 0.00065386423 -0.0016269824 0.00047879733 -0.00076700066 -0.00047240485 0.0021356677 -0.0017031011 -0.0005997514 -0.0017679181 -0.0011930646 -0.0022582782 -0.0006152833 0.0008706747 -0.0013453739 1.006904e-05 -0.0012855333 0.001983753 0.0015571945 0.0008448522 0.0004598315 -0.00068569626 0.00082586537 -0.00096260983 -0.00089369836 -0.0014525459 0.000405126 -0.0014816638 0.0027023207 -0.0024405064 0.0009524896 -0.00025138032 -0.0015218252 0.00044325096 0.00040664995 0.0008987017 0.0010828351 -0.00086160604 0.0015963194 0.0005037513 0.0010365051 -0.00064519694 0.0008211837 -0.0014616236 0.0015235192 0.0014847862 0.0013280348 -0.002985189 0.00014976936 -0.0015761614 -0.00047880333 0.00085435057 -0.00018525087 0.0024747972 0.0017021958 -0.0004918501 -0.0010529925 -0.0020821078 0.0011222011 0.001963631 -0.00154739 -0.0010257819 -0.0022299762 0.00054404733 -0.00019091704 -0.00052448036 -0.00045435355 0.0018242899 0.00052264775 0.0025650852 -0.0016778171 -1.9339821e-05 -0.0019967207 0.0015896343 0.0021188396 -0.0011179949 -0.00087705924
2-Propen-1-ol -0.003467119 0.0027354723 -0.0017156869 -0.00092226546 0.0019196763 0.00074284896 0.0025326859 -7.053048e-05 0.0032056463 0.003280253 -0.0003367085 0.001452923 0.0031074984 0.0027785997 -0.0015688937 -0.00030483678 8.722462e-05 0.0027385901 0.00068504177 -0.0026508167 -0.0005009744 0.0024543037 0.0020598131 -0.001690952 0.0019976182 -0.0019984585 0.00029067387 -0.0011380492 -0.0011454723 0.0038512307 -0.0024116503 -0.00078409025 -0.0025738298 -0.002132807 -0.0027121918 -0.00071082497 0.0014929905 -0.0032971434 -0.00072263216 -0.0021635974 0.0035344232 0.0019508528 0.00095390726 0.00085342367 -0.0022017732 0.0012831349 -0.001937508 -0.002278945 -0.0029018726 0.001243524 -0.002821596 0.0033192155 -0.0029125127 0.0018445323 -0.00027568865 -0.002274379 0.00016885577 0.0006340388 0.0014001129 0.0011279335 -0.0019129592 0.0015672459 0.0020283973 0.0017338928 -0.0014765547 0.00055473443 -0.0027326965 0.0021277596 0.0029798467 0.0017318907 -0.0037844968 -0.00024750168 -0.001445487 9.943516e-05 -0.00025561082 -0.0005691407 0.0038153406 0.0035016236 -0.00052750553 -0.00091593456 -0.0033065174 0.0013410717 0.002862634 -0.0024330034 -0.0016778847 -0.003261458 0.0003995569 -0.00026802934 -0.0009217259 -0.0010447165 0.0032255414 0.0012788152 0.0030886612 -0.0034427333 0.000498916 -0.0031108072 0.0023498768 0.0035119485 -0.0018653946 -0.0011608053
Propylene oxide -0.0018765457 0.0009996243 -0.0011807838 0.00070646935 0.00044103208 -0.0012556053 0.0009807479 -0.0017548207 0.00039660186 0.0030555539 -0.00047124643 9.225402e-06 0.0007487286 -0.0008952465 -0.0012330046 0.0006786656 -0.000494806 -0.00048494275 -0.0016553191 -0.0022882675 0.0002980048 0.0004933414 0.0010427429 -3.7002563e-05 0.00026399788 -0.0016496312 0.0008620349 0.0009970772 0.0006621823 0.0035289351 -0.00069075957 -0.00010598842 -0.0011626955 -0.0031233511 -0.0014019416 -0.0023976557 0.00014214292 0.00017056392 0.0017175538 -0.0026484202 0.0031628215 0.0026121472 0.0023364013 0.0019490924 -0.002526071 -0.0009799263 0.00044239537 -0.001533772 -0.0016571839 0.0020170899 -0.0031026748 0.0027628648 -0.0026378206 0.0026637637 -0.0009324168 -0.0035234727 -0.0010141563 0.0012316162 0.0013516007 0.0013773901 0.001115085 0.0011641011 0.000737932 0.0028850026 -0.0003581314 0.0012775686 -0.0019797569 0.003822606 -0.00011789333 0.00050997763 -0.0028684575 0.000719628 -0.001086299 -0.0008100103 0.0009937249 -0.00070166186 0.00045470588 0.0007267101 -0.002239106 -0.0019266285 -0.0034152593 -9.6447766e-05 0.0022057882 -0.00060585066 -0.0031990663 -0.0038598266 0.001312884 -0.0014191931 0.0009024132 -0.0015659422 0.0033761 0.0002282647 0.0022977572 -0.0026950494 0.0012896146 -0.0029802897 0.0018603996 0.0014123012 -0.0023305921 -0.0031107408
(Z)-1-Propenol -0.00040633915 0.0028012122 -0.0014269858 -0.0010098529 0.0014947586 -0.00035451812 0.0020214033 0.0022549059 0.0065276856 0.0006225398 -0.00074103236 -0.0015738856 6.1519444e-05 -0.0009773535 -0.00397182 0.0025540497 -0.0014101183 0.0007028495 -0.0027143087 -0.0038185623 -0.00067698536 0.005987174 0.0033793207 -0.0043703746 -0.001072599 -0.00092813856 0.0028065061 -0.0045742122 -0.0041433424 0.002333356 -0.005578458 0.0013717578 -0.0043681106 -0.005005027 -0.0060931547 -0.0033017732 -0.0012342938 -6.1995044e-05 0.0009826241 -0.00464761 0.004784448 0.0049594804 0.0030865527 -0.0024747327 0.0015800048 -0.0014282863 -0.0024379469 -0.0003657591 -0.0022057996 0.0039358977 -0.0033017076 0.001432759 -0.0026875825 0.0012805668 -0.0015540984 -0.0054550236 0.0023160817 -0.0010715289 0.0034848924 -0.000698663 -0.0035097455 0.0036389946 -0.000678491 0.0013704378 -0.0024356022 -0.00013991357 -0.0031693445 0.0014582407 0.0028351084 0.0034828703 -0.0043416503 -0.00095342356 -0.00015458387 -0.002878226 -0.0028543868 0.0019697666 0.0051779915 0.0055539063 -0.0013597859 -0.0019440351 -0.0047916416 0.0024129823 0.000118681855 0.00060407043 -0.002191507 -0.0019525987 -0.0020638686 -0.0025706864 -0.0009162403 -0.00067442073 0.0051646736 0.0013659683 0.006627731 -0.000500503 -0.0028126629 -0.0044605415 0.0015302168 0.0045931507 -0.0020668532 -0.0002852779
(E)-1-Propenol -0.0027704677 0.0030144106 -0.0020404384 -0.000618048 0.0014858743 0.00042893708 0.0022364506 0.00023193852 0.003238457 0.0030358383 -0.0005990318 0.001309714 0.0034035395 0.0022098646 -0.0016389571 -0.0005607681 -0.0001888491 0.0022312473 0.0002995655 -0.0030764155 -0.00045515955 0.0029978552 0.002141476 -0.0018466685 0.001666754 -0.0023341165 0.0002112885 -0.0011176874 -0.0010726273 0.0035440964 -0.0021564085 -0.0014345262 -0.0028184995 -0.0018822642 -0.0031913086 -0.00029312636 0.001396703 -0.003057199 -0.00066575845 -0.0020979801 0.003434077 0.002423776 0.000799426 0.0009488524 -0.001867645 0.000964046 -0.0016838422 -0.0024383352 -0.0030034473 0.0012163221 -0.0022284938 0.0031213209 -0.0027932327 0.0018457713 -0.00028046317 -0.0021881403 0.0005580808 0.000676752 0.0018858213 0.0012562264 -0.0022832532 0.0021370805 0.0018058755 0.0018721414 -0.0013737944 0.00021724831 -0.0024690493 0.0024996726 0.0027008182 0.0019142813 -0.0030656818 -0.0004878585 -0.0014512339 0.00038426445 -0.000113074304 -0.0006383622 0.003282323 0.0039616358 -0.00036049 -0.001499668 -0.0033850954 0.0022583383 0.002881957 -0.0032446205 -0.0016641647 -0.00318196 0.0001457589 0.0001218481 -0.0014887637 -0.0013587758 0.0034649137 0.0011494041 0.0031482582 -0.002946611 0.00028420863 -0.0034644413 0.0022692806 0.0034598145 -0.0024404929 -0.0005947089
Acetic acid, methyl ester -0.00016617023 0.00037235 6.0934885e-06 -0.0014200615 -0.000116775445 -0.0011595875 0.0007771385 0.00094838283 0.0018859436 0.0025383404 -0.002259122 -0.0009362651 0.00022217967 0.0005055673 0.00038657011 -0.0004364093 -0.0012007544 0.0017997412 -0.000650772 -0.00079019635 -0.0012652222 0.0009671636 0.00085176126 -0.0019163365 0.00022429823 -0.0010680859 7.6785785e-05 -0.0019615707 0.00025836032 0.0012240668 0.00060424476 0.00058652763 -0.001135337 -0.00029833036 0.0012686031 -9.625162e-05 0.0013050636 -0.0011202544 0.0021018304 -0.00020589093 0.00069707393 0.0028785304 0.00045972742 -0.00045781382 -0.00089441665 0.00068635977 0.00021619456 -0.00092208385 -0.0013700337 0.002353499 -0.0003864277 0.0016342079 -0.0032877782 0.00070384005 -0.0027346492 -0.0014503343 0.00018172308 -0.0003473526 0.0008597526 0.0010682198 -0.001478559 0.001674131 -0.00097137876 0.0015114654 0.00044092268 0.00031962676 0.0014317773 0.0018503243 -0.00033730245 0.0020439418 -0.0013923368 8.76015e-05 -0.0013286002 -0.00085585564 0.0027427764 -0.00036864582 0.0021479146 0.0027451676 -0.00018669375 -0.0010977933 0.0006775825 -0.00047932912 -0.00042492646 0.0008317393 -0.00057301193 -0.0036136967 -0.00047514806 1.8410554e-05 -0.0026676888 0.0017377776 0.002544777 0.0012023975 0.0007906832 -0.00044119204 -0.00069494866 -0.0036928894 0.0013379809 0.0020999613 -0.001349609 -0.0013520161
Propanoic acid 0.00021589865 0.0006238388 -0.0037107214 -0.0034309179 0.0022549152 -0.003488749 0.0010954011 -0.001886839 0.0030753023 0.0020045557 -0.00040568254 5.066786e-05 0.0013127355 -0.002147685 0.00035421058 0.0010494698 -0.0015022372 0.004294511 0.0035088682 -5.4846518e-05 -0.0012467718 0.0013549794 0.004470851 -0.0011738766 0.0004327016 -0.0015002589 -0.00046459213 -0.0013140921 0.000282978 -0.0019171454 -0.002275308 -0.0015786622 -0.0029288603 -0.0039204587 0.001322059 0.002216609 0.0011254353 -0.0009797728 0.0024233793 -0.003952512 0.002508266 0.00030620937 0.0007089744 0.0012520887 -0.0005071158 -0.0004958356 0.0013852384 -0.00054867426 -0.0023678197 0.0021535528 0.0007111213 0.0033882477 -0.0008495903 0.0007217409 -0.0019435388 -0.0020964672 0.0017177276 -0.000824423 0.0012297186 0.002685411 -0.0026577755 0.0012525102 -0.0024779884 0.0023839185 -0.0017357192 0.0032570895 0.00043064286 -0.0010136623 0.0016078585 0.0007835091 -0.0025470944 -0.001582376 0.0008189587 -0.0008933143 -0.002788375 -0.002107488 0.0042656525 0.0032898707 0.0006482473 -0.002981885 -2.1042024e-05 0.00091120787 0.0015055182 -0.00287519 0.0004197636 0.00035804705 -0.002110464 -0.00028548465 7.443549e-05 -0.0005106684 0.0038122467 0.0008935667 -0.0011465107 -0.0011125254 0.0016817086 -0.0031694744 0.0009802956 -5.9378333e-05 -0.0028688912 -0.00034998867
1,3-Dioxolane -0.0027970918 0.0042543914 -0.0006948188 -0.0012371283 -0.0003528727 -0.0013446606 0.00024622417 0.00030574694 0.0035974118 0.00036863674 0.0015666572 -0.00158271 0.0027124183 0.00034681492 -0.00244894 -0.0010202307 0.001998898 0.004820076 0.0014174154 -0.0017266411 -0.0024767912 0.00408724 0.003508553 -0.0033626375 0.003992432 -0.0012644148 -0.00024960324 -0.0036277024 0.00034658256 0.005658019 -0.004234874 -0.0025879648 -0.0047758715 -0.0036717146 -0.0045569427 0.0024624325 0.0025148885 -0.00043852115 -0.00020521173 -0.0038028723 0.0008742946 0.0024345336 0.0027709831 0.0022414243 0.000109495755 0.0026123296 -5.9026526e-05 0.00090961147 0.00024390253 0.0030471894 4.1762058e-05 0.00031550913 -0.004895728 0.004246584 0.0009067956 -0.0032820627 -0.00025944598 0.0026637632 0.0040073837 0.0037632636 -0.005448508 0.0011390739 0.0015605085 -7.88644e-06 0.0015765679 0.0032645245 -0.0029728308 0.0007462696 -0.00035681576 -0.001119507 -0.0033169666 -0.002745697 -0.0020498156 -0.002048831 0.0013139186 -0.002186297 0.00096197444 0.0026456953 -0.0005313307 0.0014392734 -0.002591936 0.0007074332 0.00071705756 -0.0017117824 -0.0008424239 -0.0010650769 0.00053155154 -0.0010575015 -0.0009303404 -0.0016873929 0.003887792 -0.0019944014 0.0035034376 -0.004857648 0.00026371636 -0.0019434862 0.0039634025 0.005192753 -0.0024625508 0.0013171582
Ethyl formate -0.002904751 0.0015025854 -0.0013967565 -0.000538848 0.0001993958 -0.00046251938 0.0020684483 -0.0013310803 0.00081513944 0.0027025484 0.0010381149 0.00077148166 0.00190559 0.001268379 -0.0018353548 0.0004626993 -0.0017139151 0.00031431168 0.0005505706 -0.00085027 0.0016513581 0.0015091117 0.00082634407 -0.0030098078 0.0011341942 -0.002399842 0.00055280654 -0.0018244762 0.00081038533 0.0011489528 -0.00012718943 -0.0015999991 -0.0032786273 -0.0034244165 -0.0022679733 0.002185422 0.0019427892 -0.003935842 0.00057694793 -0.0016572956 0.0031361803 0.00019979142 -0.0005930676 0.00121335 -0.0028507675 -0.0010308976 -0.0019611465 -0.0021391714 -0.0005197838 0.0028390845 -0.003180988 0.00076469313 -0.0014087853 0.0017675568 4.2158517e-05 -0.0027964374 0.0016481936 0.0008597819 0.0018586532 0.00093301415 0.000258364 -0.0010155023 0.0024090065 0.0013475347 0.00026711085 -0.0005000687 -0.000848059 0.0032809456 0.002544488 4.6600868e-05 -0.0023165778 -0.0018331578 0.0007926171 -0.00022611665 0.0014236612 -0.00041972622 0.0030919202 0.0028843698 -0.001050571 0.00039801002 -0.002872086 -0.0005993293 0.0020796924 -0.0038972609 -0.0013199521 -0.0032644712 0.00107996 -0.0012054895 0.00033532653 -0.0017082948 0.0012631143 0.0026876095 0.0016939094 -0.0033823873 0.00022018142 -0.0031959207 0.002063555 0.0033610258 -0.0023833902 0.0011170862
1,3,5-Trioxane -7.449277e-05 0.006552929 -0.0015020024 -0.0017616408 0.001785376 0.002744053 0.0008163477 0.0010888809 0.00062129647 0.0020670039 0.0007458762 0.0027018343 0.00371645 -0.00060686376 -0.0020621624 -0.0018534285 0.0007051573 0.0007040063 0.0018286457 -0.0030545546 0.0010363691 0.0027892315 -0.00019700422 0.0009746241 0.0049371994 -0.004709672 -0.00089080306 0.0015147342 -0.0040267343 0.0010319221 0.00029566482 -0.002101708 -0.0038884243 -0.003661553 -0.0017708489 -0.00077542185 0.002000179 -0.0055822576 -0.0005362171 -0.0008823622 0.0071100444 0.004298268 0.0028429104 0.0033619758 -0.0030550945 0.00081710564 0.001932444 -0.0013218678 -0.0052988622 -0.0016333407 -0.0053849905 0.0037948373 -0.0067789494 -6.057943e-06 0.001680394 -0.0033666245 0.00046538154 0.0008979586 -0.00092102 0.00083645 -0.00533889 0.0014854162 0.005274556 0.0014880616 0.001389957 0.0032333601 0.00069309835 -0.0017156991 0.0014513483 0.00063019374 -0.0032537766 0.00056598795 -0.0010701958 -0.00025742513 0.0009233948 -3.339265e-05 0.006281442 0.0020808056 0.003215048 -0.00057716144 -0.0027853032 0.0029923772 0.0046963734 -0.004130178 0.0006648478 -1.3097811e-05 -0.0013681971 -0.0025899294 -0.00061181944 -0.0007684422 0.0042342185 -0.00070871663 0.0041961223 -0.0037378545 0.0031434565 -0.0030267807 0.0010446522 0.0010958317 -0.0015836529 0.0009866368
Ethane, methoxy- -0.0024089117 0.0015492657 -0.0012870295 -0.0015602655 0.0030026776 -0.0040310584 0.0014359806 0.0018721676 0.00037250502 0.00058158976 0.00018943852 -0.002217928 0.0017009054 -0.0017026218 -0.0016249476 0.0007600092 -0.00028199525 0.00090371905 0.0019185551 -0.0037403216 -0.00011832691 0.0024826329 9.3706425e-05 -0.0030391775 0.001480381 -0.0010795273 0.0010817975 0.0009770467 0.0004678054 0.005623251 -0.0013098065 0.0014141988 -0.0030666124 -0.001469998 -0.0033722147 -0.0014852015 0.00059150247 -0.002425242 -0.00066333235 -0.0013581885 0.0023279826 0.004382774 -0.0018042777 -0.00096228 -0.0009612157 0.00081430277 -0.0030527809 -0.0034774677 -0.00281732 6.699078e-05 -0.00072020385 0.0043577137 -0.0033594542 0.0034597453 -0.0024000267 0.00023082383 0.0009846338 -0.0010009835 0.00065606955 0.00085024873 -0.0011290383 0.0028860196 0.004376994 0.00038445514 0.0014679506 -0.00071567623 0.00055683753 0.002999114 -0.0011185327 0.0009483658 -0.0013760424 -0.0001595328 -0.0021605932 -0.00082166167 -0.0017426743 -0.0025297948 0.0047798078 0.0035328013 -0.002774013 -0.0033880936 -0.0060575414 0.001116031 0.0051356293 -0.00019174702 0.0006922438 -0.0012937852 0.0008718761 0.0017998541 -0.0008203098 -0.002141922 0.001509568 0.0014649304 0.00037544267 -0.0021279368 0.00040720552 -0.0024434654 0.0037690017 0.00065980846 0.00069636095 -0.0015641972
Isopropyl Alcohol -0.0018016816 0.0017667819 -0.0012489181 -0.0006837438 0.0010508992 -2.7240812e-05 0.0014074383 -0.00012766062 0.0020291198 0.0021390922 -0.00058313756 0.00080140494 0.0012708361 0.0017422695 -0.0008560166 0.00013489882 -9.663729e-05 0.0012839225 6.869274e-05 -0.0015053278 -0.00014640208 0.0011901852 0.001382703 -0.0016008234 0.0010156081 -0.0011894171 7.947819e-05 -0.000852962 -0.000544121 0.0022976068 -0.0010283156 -0.0005536984 -0.0020063375 -0.0014060236 -0.0018146656 -0.00028330428 0.0006063965 -0.0010582785 -0.0003334301 -0.00093767105 0.0021228045 0.001160005 0.0008180015 2.945345e-05 -0.0010509709 0.0004067639 -0.0010474864 -0.0008451962 -0.0010695898 0.0009727869 -0.0011909037 0.0020922837 -0.0014850702 0.0016107835 9.3125556e-05 -0.0012374577 -0.00010073346 0.00019649016 0.0007449912 0.0007822313 -0.0008379644 0.0012584621 0.0015855919 0.0012434681 -0.0010622403 0.000277166 -0.0017933634 0.0011905992 0.0012970003 0.0014730089 -0.0022103356 3.5853063e-05 -0.0011224741 0.0009349659 -0.00075440767 -0.0010471394 0.0020150312 0.0016382196 -0.00024830492 -0.0007148878 -0.0018459102 0.0009310336 0.0013339274 -0.0019706327 -0.0011781284 -0.0019425963 -0.00035652876 0.00045281425 -0.00074897805 -0.0014545451 0.0018250775 0.0009881556 0.0017608906 -0.0025205102 0.00046285495 -0.0020174654 0.0018952197 0.0019306239 -0.0011957062 5.3859643e-05
1-Propanol -0.00017821665 0.0025437449 0.00052610226 -0.0037450353 0.0039173914 0.0024509178 0.0015104411 0.0034058662 0.0030095195 0.0029752585 0.0016330611 0.0023118074 0.003213487 0.0028832124 0.0005336298 -0.0012646359 0.00043171353 0.0004506241 0.0012882124 -0.0021656984 0.0020887344 0.0015753576 0.000564241 0.00055580697 0.00022019702 0.00038634147 -0.0018775783 -0.0011752307 -0.0020966826 0.0066360785 0.0011022242 -0.0035349666 -0.002146268 0.0008941276 -0.002492657 -0.0015450128 0.001116238 -0.0053525567 -0.00043228234 -0.0022040706 0.002524497 0.005174124 0.0037115016 -0.0016868084 -0.0022343304 0.002630185 0.0005188442 0.0006280168 -0.0031862077 0.00093948486 -0.0039966223 0.0057410933 -0.0040266975 0.0015810735 0.00018421483 -0.0024048078 0.0019738476 0.00078405 0.004314026 -0.0007540038 -0.0050365715 -0.00082008325 0.002305825 0.0015770522 0.0012391047 0.0012488295 -0.001068074 0.0019577197 -0.00022981814 0.00037456508 -0.0038527264 0.0005818985 0.00012453273 -0.0003354642 0.0002149051 0.0026079488 0.0032882793 0.0025433162 0.0020653973 0.00197059 -0.0009875464 0.0026662468 0.0021389667 -0.0021843975 -0.0011400746 -0.00015209275 0.0024266988 0.00028459996 0.0009507281 -0.0006552286 0.0055389646 0.0016149725 0.0054916805 -0.0059751766 0.00012131447 -0.006101535 0.0008070494 0.0035069385 0.00078696944 -0.0006151149
Methylal -0.00331409 0.0025444727 0.0004999251 0.0009188312 0.0028409124 0.0003370605 0.0011584609 -0.00046488523 0.0026708352 0.004855104 -0.00024187879 0.0025934456 0.0026412185 0.002649651 -0.0032237228 0.00041357073 -5.784561e-06 0.0053596976 0.0013086984 -0.0041410853 0.001641877 0.006212759 0.0019914228 -0.0016520782 0.0044458257 -0.002910824 0.0009903504 0.001338524 -0.0002960245 0.0006997752 -0.004608046 0.00017289344 -0.005819331 -0.0031902087 2.1546148e-05 0.00012732552 0.0046814457 -8.056313e-05 -0.0033820528 -0.00011173682 0.0008046469 0.0009656879 -0.0024362942 -0.0021231342 0.0011926068 0.0036429928 0.000640362 -0.004364977 -0.0008751053 0.0016952846 -0.004802185 0.0033935304 -0.006834156 0.0024956916 0.0019415852 0.00058667676 -0.0018863352 0.0026613302 0.0014429747 0.0037385568 -0.004239359 -0.0003198969 0.0013814879 0.0014146315 0.0010403403 -0.0026749175 -0.0043310127 0.003984308 0.0052137687 0.00086169434 -0.0014432975 0.0012882935 -0.0046097003 -0.0005291179 -6.3010884e-05 0.0016353227 0.0045381207 0.0004387976 -0.000430576 -0.0031585607 -0.0057734186 -0.0018357672 0.0033774949 0.0003500674 -0.005206905 -0.004510681 0.00092149916 0.00010496863 -0.00025469167 -0.0042258194 -7.488051e-05 -0.00014433335 0.004675291 -0.004261446 0.0023948262 -0.00509126 0.0027325829 0.0025286917 -0.0007121598 -0.0022164865
Propylhydroperoxide -0.0026013888 0.002683804 -0.0026165112 -0.00050399045 0.0016136103 0.00030232113 0.002489827 0.00014568651 0.0030112057 0.0033991816 -0.0005835012 0.000945477 0.00326487 0.0023346934 -0.0012170936 -0.00042342668 0.00018607765 0.0022364892 0.00029855286 -0.0031973915 -0.0005786777 0.002717083 0.0019966643 -0.0024698859 0.0021538069 -0.0020440414 0.0009894359 -0.0013160219 -0.0008051654 0.0034088807 -0.0024380498 -0.0009670848 -0.0029197326 -0.002548 -0.0030123661 -0.0005147464 0.0016148514 -0.0029105716 -0.0010321664 -0.0024499332 0.0034348327 0.00212037 0.0015484754 0.00070889544 -0.0016620001 0.001022954 -0.0014111771 -0.00121522 -0.0028652349 0.0011969202 -0.0021935822 0.0032058177 -0.00334675 0.0026876356 -1.6028062e-05 -0.0023401421 0.00025924784 0.0010163587 0.001561112 0.0011453028 -0.0017518615 0.0023668092 0.0015781408 0.0018114264 -0.0018006032 0.00074164453 -0.0024356507 0.0020806026 0.0027178559 0.0020256676 -0.003897513 9.632051e-06 -0.0016740845 5.7774247e-05 -9.188472e-05 -0.0010744384 0.0033475691 0.0031523765 -6.988201e-05 -0.0013219303 -0.0032422466 0.0021167044 0.003192158 -0.002632646 -0.0021572108 -0.003555322 9.072262e-05 1.6604463e-05 -0.0010580267 -0.0011656492 0.0036828355 0.0011379969 0.003140124 -0.0028794794 0.0005666128 -0.0034179646 0.0022948082 0.0029631238 -0.0021236166 -0.0008229957
Ethanol, 2-methoxy- -0.0028368973 0.0012399115 -0.0023437133 -0.001901247 -0.0009361322 0.0006553299 0.00033631996 0.0007722864 0.002479709 0.001903843 -0.00249384 -0.0023209618 0.0025788415 0.002507446 0.0015893901 0.00071619207 -0.0027076753 0.0023175124 0.0034553718 -0.0006005697 -0.0018067207 0.00052074064 0.0007249566 -0.002138366 0.0010363474 1.4117919e-06 0.000101233556 -0.0013622135 0.0022200057 0.0025360833 -0.0016993795 0.0005715269 -0.002622318 0.0015365424 -0.0020405266 0.00095043884 0.0023245283 -0.0015345853 0.0018840112 -0.0008332175 -0.0005788509 0.00393532 0.0009830507 -0.0003993196 0.0003426956 0.0028226648 -0.001621006 0.0011643398 0.0015363616 -0.000996548 0.0011148422 0.0026250747 -0.003268179 -0.00031577164 0.00046505366 -0.00081985485 0.0032993478 0.0011468142 0.0012880054 0.0034414139 0.00011829548 0.0019484832 0.002236101 -0.003050866 -0.0015084203 0.0016303288 -0.0037299476 0.0009883174 0.0015033229 -0.0026077067 -0.003073329 0.00021703621 -0.0008101728 0.0015737659 -0.0017390524 -0.0013895237 0.002764675 0.0014134072 -0.002280561 -0.0021166815 -0.0032426955 0.0015158715 0.0018106956 -0.0027379484 -0.00023660874 0.00041807137 9.248242e-05 -0.0014348737 -0.0011395989 0.0016402475 0.004591849 -0.0007410453 0.0025130585 0.001319806 0.0024355955 -0.0032807866 0.00060563424 0.0024073794 -0.002163798 -0.001628229
Propylene Glycol -0.0017306276 0.00186712 -0.0029884146 -0.00025718473 0.0017845476 1.3021194e-05 0.0043973327 0.0019294968 0.0034911768 0.0008481087 0.0008552054 0.0019064232 0.0018568505 -0.0006279759 -0.00046412574 0.0010651087 0.0017369203 -0.0018912848 0.002162749 -0.0015536267 -0.002920923 0.00016560087 0.000698247 -0.0020592224 0.00041343403 -0.00087581336 -0.0017550171 1.5738886e-05 0.0017789357 0.0012407629 -0.001530773 0.0010966065 -0.0019840058 -0.00052291324 -0.0031862692 -0.0011741575 0.003234308 -0.0015793564 -0.0031172526 -0.0010262477 0.0025848455 0.0012389635 -0.0021682659 -0.0022406527 -0.0047004013 -5.471334e-05 -0.0016201761 0.0005305541 -0.0021679632 0.0011536315 0.0003571244 0.0007268447 -0.005572085 0.0019287582 0.000101764876 -0.002447329 -0.0013569015 0.0028754056 0.0016539842 0.0035702258 -0.0014629482 -0.00010265829 0.001294785 0.0007188781 0.0018706998 -0.0022681246 -0.0033145838 -0.00019673142 0.004329206 0.004672741 -0.0033043537 -8.966671e-05 -0.0005359102 0.0028998104 0.0014689164 -0.0020154382 0.0026515066 0.000873014 0.00089424534 -0.0009983184 -0.0020706602 0.00093842205 0.0017891824 6.511966e-05 0.0013803535 -0.0003144125 -0.00023436015 0.0007299656 -8.97008e-05 -0.0015121144 -0.00014709179 0.001275562 0.0040020077 -0.0023665421 0.0027202112 0.0003893088 0.00079358165 -0.0014400332 -0.0019534198 -0.00041733563
Hydroperoxide, 1-methylethyl 0.0020463208 6.8446294e-05 -0.00068017276 -0.001956188 -0.0014125713 -0.0023211841 0.0039339582 -0.0012416203 0.0018897223 0.0020343827 0.0018889062 0.0033863168 0.0013721864 0.0011275129 -0.0008052039 -0.0009781049 -0.0003036676 -0.00037277676 -1.7343113e-05 -0.0029036007 -0.00059562916 0.002597356 0.0010973916 -0.0028627343 0.005062565 -0.00017771442 0.003938887 -0.0004908396 0.0015831394 0.0041296463 0.0008415109 -0.002519275 -0.00037734435 0.00093479326 -0.0037187268 -0.00021673478 -0.0006534244 -0.004516252 0.0026023441 -0.00036812798 0.0017310679 0.0015724136 0.00041126946 -4.1421504e-06 -0.002022301 0.0012277793 0.00022135628 -0.0011516588 -0.0016449097 0.0023316129 -0.0012050786 0.002356254 -0.00043901903 0.0015779432 -0.0012456992 -0.0031820366 0.00024018902 0.00065712753 -0.0014734206 -0.000519639 -0.0034311877 0.002364341 0.004182649 0.0010199392 0.00085663144 -0.00067019975 -0.0016870283 0.0018503411 0.005165014 0.0018773016 -0.0052883974 -0.0003457157 -0.00048018814 0.0010628765 5.7852594e-05 -0.0026617595 0.00036130502 0.0006448403 0.00033461172 0.00067027047 -0.0021560462 0.0011815663 0.0013430606 -0.004125276 0.0014456587 -0.004741372 0.0004623765 0.0016628914 0.0013162 0.0010496983 0.0019648522 0.0009895967 0.0013199415 -0.0015003461 0.0005094233 -0.0017615341 -0.00012564864 0.00031968314 -0.0006856034 0.0013554607
2-Propanol, 2-methyl- -0.0020447026 0.0029417798 -0.0011519141 -0.0007339019 0.0018584005 -0.00041355556 0.0015150063 -0.0018621086 0.0032818764 0.0024664535 8.696801e-05 -0.0010026315 0.0002485482 0.001215174 -0.0021623054 0.0011644065 -0.0006381772 0.0025567873 0.0020788088 -0.00035336651 0.00065739173 0.00087434874 0.00011074758 -0.003212735 -0.0001899574 -0.0031265821 0.00065986643 -0.000826396 -0.002450045 0.0027285477 -0.0021128089 -0.0009713575 0.00038018517 -0.0029938885 -0.0023027644 0.000917579 0.0028066223 -0.0019908368 -0.0021920903 -0.0013099534 4.428886e-05 -5.9276073e-05 -0.00042401074 -0.00056754996 0.0005214639 0.001366841 -0.00045000177 -0.0008593444 -0.0011220494 -0.00093127304 0.0005841216 0.00021241214 -0.0019342665 0.002260477 -0.00027475075 -0.0010240078 0.0009143161 0.0024436903 0.00088432676 0.0012178855 -0.0015246224 -0.00046476704 0.0020786305 0.0018093645 -0.0014664774 0.000852675 -0.0029894975 0.0036510087 0.0007124169 0.0008031307 -0.00093584287 4.990888e-05 -0.002744448 -0.002246035 -0.0018480931 -0.0016518055 0.004182569 0.0008242475 -0.0019682355 0.0004766519 -0.0032309182 0.00015695179 0.0002645219 -4.352918e-05 0.00030993103 -0.0034084083 0.0019160412 0.00038961027 -0.0012689497 0.00039589312 0.0011102181 -0.00054294703 0.0010124933 -8.9341214e-05 0.00089356006 -0.0037196376 -0.0006341776 0.0012037981 -0.002932689 -0.0016149884
Methyl propyl ether 0.00021098515 0.0011466019 -0.0010519221 -0.001775388 -0.0001272719 0.0032493803 -0.0015160718 -0.0024594567 -0.0006079108 0.00201244 0.0034507192 0.00088544755 0.0006304611 0.00063093595 -0.00043236263 0.00025599604 0.0023623933 0.0023600997 0.0015891382 -0.0013586173 0.001089473 0.0013717863 0.0031573747 -0.0018648816 0.0016772887 -0.0007722689 0.0034872952 0.00045140687 -0.0004991576 -0.0011202262 0.0006464687 0.0017051864 0.0011045159 -0.002832176 -0.00010371036 -0.00034661978 0.0013743326 -0.00086063775 0.0024970814 -0.0024832152 0.0021433027 -0.00010242656 -0.00022649273 0.0027307922 -0.00096233294 -0.00025991313 0.00013450999 -0.00013686059 -0.0010180605 -0.0014053384 0.00018780291 0.0005056586 -0.0010383639 0.0021917264 0.002797769 -0.0010534422 0.00054643844 0.0024056367 0.0008459386 -0.0008665796 -0.0009230078 -0.00066208036 0.0005434264 -0.0013992279 0.0013044464 -0.0006334067 -0.0022050038 0.0011700228 0.00013584917 -0.00023964075 -0.0021865766 -0.0005662905 0.0017644172 0.0022853236 0.00030156027 -0.0023832186 0.0008650295 0.0037786618 0.0016210334 -0.0017048755 -0.0015273255 0.0006141305 0.0009317577 0.00096634874 -0.0025591494 -0.00077489734 -0.000779299 0.0009796583 0.0002889773 -0.0016590512 0.0021405357 -0.0009857665 0.0020118207 -0.004582405 0.0036410308 -0.0047214665 0.000979788 0.0048790323 0.00022540828 0.0027320578
1-Butanol -0.0022989751 0.0042560194 -3.4903333e-05 -0.0033230516 0.0015280787 0.0031826214 0.001666345 0.0024772007 0.0063744755 0.0052209087 0.0020999021 0.0018058382 0.00126201 -0.0002957128 -0.0004896282 -0.0021461293 0.002626583 -0.0013264897 0.0020553947 -0.0039238227 0.0020143297 -0.00051599264 0.0046203597 -0.0044609476 0.0009028772 -0.0013456529 -0.0015606222 -0.0020782424 -0.0019484267 0.0008476316 -0.0019881695 -0.0041694874 -0.005079565 -0.0014530541 -0.004281899 4.175749e-05 0.0022424199 -0.00185368 -0.0009731394 -0.0024219202 0.004966596 0.0003440205 0.0012677351 -0.00085010816 -0.0038824594 0.001964325 0.0003408703 -0.0012635704 -0.0033507783 0.003722076 -0.0027898892 0.0021498238 -0.0034619605 -0.00011878678 0.0025472825 -0.0019265627 -0.0024547223 0.0005612888 0.0027846235 0.0017906477 0.000602659 -0.0003677872 -0.0010950828 -0.001362907 -0.0016094263 -0.00037472343 -0.0031312895 0.001801691 0.0010716023 -0.0012495838 -0.003089437 0.0003310764 -0.0014311925 -0.0029627844 0.0035504324 0.0017804647 0.005905929 0.0017825994 -0.0014652326 -0.0039408407 -0.0029387325 -0.0011339029 0.00032406393 -0.002333682 -0.0012448257 -0.0007117597 -0.0024258762 0.00066307664 -0.00038416762 -0.0007777893 0.0016083315 0.0035297803 0.0016803894 -0.005589662 0.00043416952 -0.006321214 0.004497106 0.00021711117 -0.0004799894 -0.0015755543
Propane, 2-methoxy- -0.002122144 0.0022671723 -0.00053011806 0.0005918091 -0.0020074053 -0.0009781957 -0.0012456443 0.0002174384 0.0019629763 0.0012288081 0.00079708494 -0.0002064813 0.0028667802 0.0003308247 0.001325683 -0.00077350804 -0.0013444353 0.0016455621 0.003117286 0.0010672576 -0.0011047904 0.000711613 0.001711073 0.0006026326 0.0007463083 -0.000691008 0.0016362527 0.0003590325 0.000110452995 0.0018160753 -0.004182826 -0.0010576338 -0.0014415081 0.0026956839 -0.0017333272 0.00077033014 0.0011388086 -0.0038896955 0.0012256701 -0.00036717142 0.0032345585 0.0017903239 0.00037772674 0.0012396995 -0.0002861832 0.0037810274 -0.0008390559 -0.0014038745 -0.00015553161 -0.00082056504 -0.00044856648 0.0013170696 -0.0012086508 0.00093865715 0.0010851687 0.0014502006 0.00074762636 0.00015993389 2.8321334e-05 0.0021467956 -0.0026424187 0.0016982558 0.0024936919 -4.005842e-05 -0.0017796807 0.00040731532 -0.004003956 0.0019719168 0.00065242866 2.7958304e-05 -0.0029872209 0.00038188323 0.0013474616 -0.0020677145 -0.0012624322 0.0017605622 0.0037175403 0.00308337 -0.00035417575 -0.0018398684 -0.0022989276 0.0035335065 0.002692222 -0.0005776152 -0.0035130226 -0.0013186968 -0.0012191149 -0.0034028653 -0.0006009612 0.00013511488 0.003279317 0.00046700318 0.0008328065 -0.0001232775 0.0040314943 -0.0024396523 0.00095040037 0.0006981672 -0.0043022265 -0.002189256
Ethyl ether -0.0048019844 0.0019726239 -0.0009544994 0.0006953977 -0.0015115531 0.0015086922 -0.0015811793 0.0009103895 0.0032637499 0.0013051572 0.0009973346 0.0039924043 0.0013157515 0.00066593516 0.00092814397 0.0019492776 -0.00031467594 0.0013293423 -0.00018218625 -0.0026972515 0.0015829931 0.0034144872 0.0016518818 -0.0011711528 0.0016056774 -0.0011050375 0.0013523567 -0.00057496625 -0.0015755299 0.00076947 -0.00018889867 0.0017928112 -0.0024361059 -0.0026609418 -0.0008400892 -0.00054382154 -0.00059055927 0.0002334429 0.00013990575 -0.0032144212 0.003471017 0.0014199595 0.0017400937 0.0016211513 -0.00035584412 0.0012636725 0.0035577565 -0.00022155563 0.00022274535 0.00069017353 -0.001502975 0.0011006265 -0.0007197492 0.0026170919 0.0030108197 0.0007452231 0.0028059944 -9.247847e-05 -0.00044752657 0.0018219159 0.0015322458 -0.0024543616 0.002043084 -0.0012842575 0.0009492472 -0.0031043098 -0.0053955265 0.0038432397 -0.002051667 -0.0013884597 -0.0022846486 -0.0022029725 -0.0012634258 0.0011871059 -0.0018097385 -0.0018664747 0.003633892 0.0058006155 -0.0025426105 -0.0011007556 -0.0013659314 -0.00075122423 0.0022865299 -0.0020548617 -0.0022212951 -0.0036023594 0.00043676366 0.0019280277 0.0024527197 0.0008283156 0.004509714 -0.00014490962 0.0019191593 -0.004078428 0.0009397745 -0.0038527772 -0.00024019612 0.005043158 -0.0029020242 0.0028071222
1-Propanol, 2-methyl- -0.0017399909 0.0012473802 -0.0016351149 -7.162113e-05 0.003168186 0.0007387197 -7.057795e-05 -0.0012438033 0.0017606 0.0031297335 0.0013916054 0.0012602259 0.0017858719 0.0014345172 9.558695e-05 0.0005794254 -0.0007224755 -2.9305602e-05 -0.00042492079 -0.0030539248 -0.00029909736 0.0019922357 -0.00038988088 -0.0019512372 0.002692223 -0.0022977884 0.0017599951 -0.00010690354 0.0008244714 0.0009122078 -0.0028500229 0.0008180413 -0.0015786908 -0.002292778 0.0001950333 0.0011368556 0.0002770247 -0.0002465753 -0.00022954757 -0.0018577062 0.0003977214 0.0028072137 0.0018858168 0.0002758639 -0.0015058995 0.002133029 0.00015536147 -0.0025975495 -0.0033556842 -0.00018751528 -0.0023458868 0.003034483 -0.00063731935 0.0030685856 -0.0014168181 0.0006711556 -0.00041171638 0.00057311304 -0.0014608189 0.0011804289 -0.00087157165 0.002405249 0.0021179575 0.0009792898 0.00072072167 -0.0007884344 -0.000909283 0.0003330362 0.002626034 -0.00048588682 -0.002080019 -0.00072970625 -0.0021706596 0.00055155455 0.00033777003 0.00044393633 0.0023216375 0.0010013635 0.0010674543 -0.0011475639 -0.0026423298 0.00047414043 0.0011446403 -0.0004494669 -0.00089569314 -0.0034908266 -0.0011805653 0.00029687732 -0.00038466864 0.0010201182 0.0029006822 0.0026920284 0.00048505366 -3.751088e-05 -0.00072416145 -0.0031373636 -0.00015323078 0.0026328915 -0.0013024049 -0.0013701121
2-Butanol -0.00094077876 0.0002804352 -0.0039765486 0.0004018831 0.005175072 0.0019183906 -0.0012215817 0.0010262205 0.0051543084 0.001198262 0.0019073308 -0.001173001 0.0045169434 0.00064651156 -0.0022271033 -0.0004866558 0.002295684 0.0034932545 -0.00034821476 -0.00029237507 -0.002728277 0.0030480716 0.003011024 0.0014675984 0.0027992947 -0.0028853777 -0.0027196626 0.0005738453 6.729233e-05 -0.00012677256 -0.0054787435 -0.002313727 -0.0009310336 -0.0044024503 -0.004617238 0.0022365032 -0.0015184171 -0.001270941 -0.003881588 -0.005112734 0.0023909071 0.004496684 -0.0006555789 0.003735972 -0.0040404173 -0.0009511239 -0.0028494927 -0.0035999918 -0.00083574606 0.00077168026 -0.005105096 0.005612429 -0.0006367414 0.0016616897 0.0017823081 0.000890614 0.0035040795 0.0037091505 0.004166189 0.0019374704 -0.00046515418 0.0020693003 -0.0009609863 0.0024315675 -0.0024963617 0.002768874 0.0008878244 0.0028410903 0.005429785 -0.0014707934 -0.0010630758 0.00091823295 0.0001519026 -0.00089333043 -0.0002600766 0.00045066 0.00059382495 0.0020424393 0.0028800834 -0.001706721 -0.0017462857 0.0054350886 -8.01251e-05 -0.0053255646 -0.0024368875 -0.0048143934 -0.002194455 -0.00086929416 -0.00024793806 -0.004313927 0.006079439 0.00056590064 0.0064827837 -0.004543803 -0.0024783334 -0.0041439487 0.00064515264 0.0018360585 0.00067251147 -0.0026357872
tert-Butyl Hydroperoxide 0.00062292366 0.0020719252 -5.9505273e-05 0.0004699927 -0.0006643597 0.0006772162 0.0031109056 0.0019686646 0.0018723436 0.0031350588 -0.0016346633 -0.0010198607 0.0038811632 0.0013597471 0.0010462782 -0.0017551741 -0.0010293204 8.156151e-06 0.0021768294 -0.0014392728 -0.0020177576 0.0026651896 -0.0008659429 -0.0020467087 0.0022998792 -0.0027922303 0.0015924206 -0.00091913034 -0.0018284874 0.0012225517 -0.00084955845 -7.630547e-05 -0.0035331398 -0.0032867284 -0.004132075 -0.0006080046 0.00056845025 -0.0005654118 0.0006002057 -0.0005094092 0.0019450504 0.0023303863 -0.0006664369 -0.0008610377 -0.0018381287 0.0016369747 -0.00060034456 -0.0025214602 -0.0027771434 0.001185767 -0.0030640247 0.003343369 -0.0023147713 0.0014520584 -0.0015680337 -0.00021459293 0.0016174567 -0.0011619193 0.0012496287 0.0015102184 -0.0019114856 0.00087778206 -0.00042003338 0.0017241968 -9.651808e-05 0.0021485954 -0.0022400115 -0.0006003001 -5.6245364e-05 0.0026400145 -0.0043852613 0.0015900743 -0.002121285 -0.0008156492 0.0021899955 -0.0013442129 0.0021674517 0.0028973573 -0.00039279048 -0.00046307035 -0.004008399 -0.0003412042 0.0015650475 -0.00069341355 -0.0010187639 -0.0021125083 -0.0008134544 -0.00064728776 -0.0015636919 -0.0016964447 0.0035692074 0.0026441019 0.00012106877 -0.0033247245 -0.0010171589 -0.001739388 0.0002850026 0.0014945578 -0.0024337333 -0.0015557475
Ethane, 1,2-dimethoxy- -0.003164306 0.0015736582 -0.002555451 0.0014257076 -0.0008870641 0.0016603585 -0.0010748066 0.0015623904 0.003021932 0.0038621896 0.0007362193 -0.0015867524 0.0032935136 -0.00028628242 0.00024206583 -0.0004747469 0.0006364827 0.001322653 0.002738352 -0.0012798387 -0.00018451769 -3.512707e-05 0.0021127 -0.0012126159 0.0017089859 -0.0005810301 0.0019858386 -0.0016360882 0.0012698874 0.0005247807 -0.0028437707 -0.00042912675 -0.003427439 -0.001312236 -0.0006885134 -0.001216241 -0.001401936 -0.0024774175 -0.0023617889 -0.0017457878 0.0043168175 0.001268316 0.0010050929 0.001548448 0.0009479546 0.00087091344 0.00061100663 0.0006157332 -0.0005864642 0.002064711 -0.0008989571 0.0024500587 -0.0029691365 0.00029590252 -0.0015516846 -0.002781275 0.001847245 0.0021688156 0.0027504428 0.0017037605 -0.0018340417 0.0019045951 0.001357041 -0.0003393723 4.639663e-06 -5.4576667e-05 -0.0008355658 -0.0004680734 0.00081316306 0.00090967194 -0.002099356 0.0020794796 -0.0014140976 -0.0018695242 -0.0009464986 0.0011412348 0.0014777088 0.0024012786 -0.00016830314 -0.0026130453 -0.0034809427 -0.0008900206 -0.00015677643 -0.0016940924 0.0004537006 -0.00060072704 -0.0004147143 -0.00017345078 -0.0014065013 0.0003958762 0.0031773043 -0.0012792264 0.00019312874 -0.0016289529 -0.00093929697 -0.0026806106 0.00023705597 0.0028179754 -0.00039006086 -0.0019491132
Peroxide, diethyl -8.1642065e-05 0.0023365256 0.00023026092 -0.0019266674 0.00100927 0.0024142002 0.0023110888 0.00029901962 0.0012215518 0.0026514616 -0.002165543 0.0015825123 0.0035137595 0.004303845 -0.0010095722 -0.0031772435 0.0015339836 -0.0017226111 -0.0016489547 -0.002051163 -0.0044879946 0.0006923854 -0.0009519794 -0.0019895267 0.00038083323 0.0003324933 0.0027546198 0.0015927937 -0.0029620745 0.0031214803 0.0019315673 0.0016888581 -0.00035566025 -0.0032692042 0.0018642286 -0.0017571244 0.003130696 -0.00016277497 -0.0016207785 -0.0005005062 0.003834145 0.0030846184 -0.0027616117 0.0019999447 -0.0038740963 0.001458669 0.00019106409 -0.0043870346 -0.0021726885 0.0038118244 -0.00092196354 0.0025527966 -0.002539957 0.00027716366 0.0006092085 -0.00019790456 0.0017997029 -0.0012236517 0.0017662201 -0.00011510988 -0.0005322993 0.0015242317 -0.002430917 -0.0006828848 0.0011304095 -0.0002949211 -0.00051740144 0.0025522949 0.0037397705 0.0031483218 -0.0033368282 0.0009148535 -0.0031442337 -0.0023471974 0.0016394969 -0.0006692505 0.005049284 0.0027621118 0.00015244138 -0.0019102622 -0.004920813 0.0026482993 0.0016049024 -0.0007588423 -0.0033932196 -0.0010527734 -0.0013321543 0.00047976786 -0.0020176934 -0.0020551807 0.000115567585 -0.0010211964 0.00010248786 -0.0008081002 -0.0005043447 -0.002516588 0.0016392898 0.0013302846 -0.003643152 0.00077750086
1,4-Butanediol -0.0028643308 0.0028272248 -0.0021846052 -0.0004932127 0.0017497645 0.00064485334 0.0024808198 0.00040367292 0.0033129677 0.00331 -0.0005196239 0.000784279 0.0029844246 0.0024962593 -0.0017367939 -0.0012059396 4.8089685e-05 0.0015359753 0.0002624576 -0.002820607 -0.0010708688 0.002797903 0.0015298247 -0.0020499893 0.0015477337 -0.0021503565 0.00040845212 -0.0013283757 -0.00060998154 0.0031920262 -0.0023760404 -0.0012378639 -0.002821527 -0.0024510943 -0.0034768132 -3.568537e-05 0.00092655723 -0.0030618338 -0.0009637509 -0.0025182385 0.0032502448 0.0029278179 0.0011462742 0.00055621995 -0.001905563 0.00035883073 -0.0014457225 -0.0011747099 -0.0028845775 0.0010783158 -0.002435022 0.003172606 -0.003284845 0.0020325019 -0.00017233372 -0.0018890752 1.414679e-05 0.0012394827 0.0013086069 0.0011866946 -0.0022018468 0.0021475633 0.0025513922 0.0018243192 -0.0017175709 0.00013466235 -0.001996574 0.0016565612 0.0030800025 0.0016036503 -0.0033921138 1.1619922e-05 -0.0012440244 0.00021603085 0.0005309251 -0.0015330415 0.0035633696 0.0036077183 -0.00015577493 -0.0011601414 -0.0031340336 0.0021691523 0.0031225723 -0.0034647104 -0.0018933358 -0.0029081134 0.0002627102 8.967007e-06 -0.00042583593 -0.0010397212 0.003545574 0.0016911575 0.0029300037 -0.0030311102 0.0005853596 -0.0034375682 0.0022367972 0.0029086347 -0.002045355 -0.0006927565
Methane, trimethoxy- -0.0034192675 0.0019860172 0.00088298024 -0.0039597526 0.0030925502 -0.0024509237 0.0024767185 -0.0012271631 0.0023667123 0.0020264739 -0.00095413654 -0.0017585888 0.0003997461 -0.00076990714 -0.002968326 -0.0028978854 0.0012898439 -0.0021603727 -0.0023032713 0.00011248547 0.00018812092 0.0021031688 0.0024871628 -0.0047512413 0.0011242529 -0.00054253265 0.0012186965 -0.0018087093 -0.0012748023 0.0013376967 -0.0005369782 0.0027494382 -0.0006545695 0.0009919404 -0.000781635 0.0006204837 0.0029059604 -0.0037843094 0.0019569804 -0.0012666027 0.0017546027 0.002550578 -0.0021422817 -0.0005436425 -0.0021899056 0.0025590172 0.00093787437 9.253044e-05 -0.0010309756 0.00062722416 -0.001223265 0.0033798323 -0.0035978116 0.0027844713 -0.00031444157 -0.0028619266 -0.003559716 0.001581285 0.002006798 -0.00011804863 -0.00044027437 0.0014554084 0.0027313128 0.0016852226 -0.0011055535 0.0005267827 -0.0010018875 -9.504577e-05 -0.0014071584 0.0040909797 -0.0022468239 0.00035060756 -0.00090241677 -0.00071334577 -0.0015872534 -0.00035803448 0.0015699642 0.0017330259 -0.0023239648 -0.0026119691 -0.0032944393 0.00012767248 0.00069944264 0.0022999435 0.0022526036 -0.0019478971 0.00046855104 0.0013923985 -0.00026936745 0.0028933343 3.971905e-06 -0.0018987801 0.0009790019 -0.0038691645 0.0015894575 -0.002807167 0.0027004476 0.0039602737 -0.0006499881 0.0013326899
Furan -0.004683612 0.0046251253 -0.0017913627 -0.0021790983 -0.0016400383 0.001622523 0.0037982548 -0.0019161932 0.004084684 0.0032375664 -0.0007657367 0.0023371466 0.0037112837 0.0023332539 0.00245804 -0.0042783893 0.0036059632 0.00524434 -0.0012061085 -0.0029901615 0.001874423 0.0038253884 0.000112000314 -0.00014384417 0.004597904 -0.0052983277 0.0018893935 -0.004276947 -0.0015409745 0.002014938 0.00028270733 -0.002163283 -0.0030012885 -0.0029704105 -0.004273638 0.0014331806 -0.00023309616 -0.003250142 0.0011914017 -0.0012717946 0.006501101 0.0047223903 0.0024629016 0.0020793744 -0.00023480241 0.0034178202 -0.00012547694 -0.0019803233 -0.0016246497 0.0011730581 -0.0029911003 0.006354902 -0.0048523047 0.00023466365 -0.000121523415 0.0005524817 -0.0007023152 0.003271062 -0.00011319124 -0.0015521012 -0.0028020123 0.00025412193 0.0017264294 0.0033488187 0.0021351713 -0.0012788037 -0.002711087 0.00050336367 0.00023603502 0.00090632227 -0.0036096182 0.0016786498 -0.0002979128 -0.003548881 -0.0012142502 -0.0016446167 0.006510269 0.0015397032 0.00065077597 -0.0030565315 -0.0007217224 -0.0010841882 0.0046644974 -0.0031755622 0.0005128591 -0.0052272975 -0.0027048183 -0.0015811692 -0.003380239 0.0014487887 0.00064091233 0.002275928 0.006590245 -0.0037472802 0.0043167733 -0.0030173673 0.002115163 0.0010286148 -0.0022838414 -0.0029527731
2-Oxetanone, 4-methylene- -0.0029776522 0.0019192504 -0.0026739407 -0.00030721148 0.0023500053 0.0020239034 0.00030382336 0.0015033743 0.00096975826 -0.00023439545 0.001753826 0.0013677698 -1.3895519e-05 -0.0008238898 -0.0016488861 -0.0012662368 0.0012781274 0.00096236443 -0.0014225467 -0.0020964358 -0.00046607698 0.00047121142 0.00305407 -0.0005762663 0.00026848307 -0.0021292556 -0.0008919369 0.0016467916 -0.0021548995 0.0019239202 -0.0016814724 -0.00018358079 -0.0031609298 -0.0014677525 -0.002802872 0.00010521552 0.0015086906 -0.0027070947 0.00011176493 -0.001765384 0.002460655 0.00017480423 0.0013492621 -0.00058272894 0.001480365 0.00036962703 -0.00095761626 -0.002591875 -0.0013256749 0.0024153285 -0.0010582204 0.00041779512 -0.000745526 0.001514358 -0.0018215452 -0.0018090537 -0.0017625097 -0.0010885086 0.001848047 0.0015716639 -0.001048033 -0.00014447738 -0.00021345587 0.00033327387 -0.0014111892 -2.8692652e-05 -0.0018101154 0.0035501437 0.003445819 -0.0009151849 -0.002879757 0.00012680663 -0.0022791454 0.00015878944 -0.00030852683 -0.0019435019 0.0017017331 0.00084960595 0.00055105565 -0.0023478002 -0.0036132566 0.00046374262 0.0030129869 0.0003340237 -0.0022206795 -5.352795e-05 -0.0014988832 0.000104187944 -0.000586047 0.00076824654 0.0031210901 0.0023518566 0.0029134569 -0.0018527491 0.0012511148 -0.001188343 0.0014010981 0.0005940466 -0.002254253 -0.00027333977
Methacrolein -0.0027772533 0.003247369 -0.0027008867 -0.0008809489 0.0018469214 9.401473e-05 0.0027535493 -0.0004258087 0.0037671044 0.0039043992 0.0005633567 0.00045516994 0.003081589 0.0022624766 -0.0013477271 -0.0011207792 0.00019309908 0.0020839327 0.00033268027 -0.0026953535 -0.0006004928 0.0025764445 0.0019590224 -0.0023555583 0.0016191993 -0.002228312 0.0004199871 -0.00093363936 -0.0005042501 0.0031851465 -0.0026887194 -0.0013635372 -0.0023494125 -0.0019731321 -0.0033348366 -0.000751624 0.0011846072 -0.0033599657 -0.0010043238 -0.0023365421 0.0031466288 0.0027905623 0.0005544869 0.00028249747 -0.0018156184 0.001247311 -0.0013288099 -0.0009799704 -0.0025471966 0.0004929437 -0.0025835144 0.0033948633 -0.0031925072 0.0011992226 -0.00017033778 -0.00219037 0.0008122485 0.00066972815 0.0013730747 0.0012360192 -0.0021437765 0.0018891635 0.0019510164 0.0027454626 -0.0013989047 0.00020733416 -0.002803557 0.0025016447 0.0032661147 0.0017475067 -0.0032846192 0.00038982974 -0.0013206846 -9.036429e-06 -0.00034739886 -0.0011608386 0.003927271 0.003560311 6.928427e-05 -0.0010582064 -0.003320254 0.0013558337 0.003143453 -0.0028035096 -0.0017245389 -0.0024607163 -9.9800876e-05 -0.00049302005 -0.0010975176 -0.0011649389 0.0032186932 0.001662873 0.0036216653 -0.0030012194 0.00044667366 -0.003430737 0.0014894026 0.0032649755 -0.0017038407 -0.0002559903
Methyl vinyl ketone -0.0011109745 -0.00017606195 -0.001062716 -0.002179669 0.0032741113 -3.891059e-05 0.0016051388 0.001160379 -0.0003428325 0.0012556544 -0.0022944144 0.00020334941 0.0027381713 0.00011842413 -0.00034668922 -4.771525e-05 0.00024456027 0.00042502725 -0.0002811228 -0.0008483167 0.0005906685 0.0028980998 0.0010986944 -0.0034290962 0.0006291147 0.0006840149 -0.00071526045 0.00035318552 0.0002523895 -0.0016231029 -0.0011312801 0.0021553983 -0.0001555183 -0.0005687643 -0.0021249587 0.00012646835 -0.0009085643 -0.0017777613 0.000783467 -0.00045138493 0.0005921566 -0.0011701456 0.0010464324 -0.00035149083 0.00018877457 0.0018966618 0.0007666166 -0.0012820623 -0.0007024504 0.00308245 -0.002585742 0.0036547277 -0.0016236437 -0.0009871698 0.0013598066 0.0009080342 0.0016811677 0.0020530242 0.00049738056 0.0016491401 -0.0012411268 0.0014306974 0.0014801145 0.0022426283 -0.0012186965 0.0026012394 -0.0017890413 0.0019111097 0.0002470125 -0.0007454736 -0.0021976368 0.0009227855 0.00020306218 -0.00070118695 0.0003119672 -0.00053144817 0.002439977 -3.005764e-05 -0.0006269278 -0.0004006454 -0.001636295 -0.0009446169 0.00051058194 -0.0029707993 0.0002490757 -0.0016161782 0.0016488713 -0.0007354313 -0.00047909922 -0.0007716611 0.0012023806 -0.0016295576 -0.00011895152 -0.0025797798 0.0005848121 -0.0024601535 -0.0014402402 0.0014720954 0.00022334403 -0.0009588123
2-Butenal -0.0029642768 0.0023974152 -0.002905786 -0.00064758334 0.0018452904 0.000182508 0.0014613228 -0.00025398767 0.0034302445 0.0027998616 -4.0032475e-05 0.0011103821 0.0026784814 0.0026470076 -0.0012522277 -0.0002346756 7.40221e-06 0.0014122113 -0.00053534884 -0.0029936018 -0.00090343034 0.0029684734 0.0022544302 -0.0018042446 0.0018037999 -0.0022016834 0.0012490335 -0.0008540104 -8.779291e-05 0.003245915 -0.0026501296 -0.0012354354 -0.002338386 -0.0024109678 -0.0030078783 -0.00038831995 0.0011590078 -0.0032193137 -0.0009261514 -0.0023429706 0.0033013136 0.0027139513 0.0007963409 0.00061462936 -0.0015881358 0.001299396 -0.0016080197 -0.0017942198 -0.0024085538 0.0011048241 -0.003179193 0.0036680833 -0.0033293818 0.0019638622 -8.550758e-05 -0.0019303539 0.0007370349 0.0010992299 0.0018823883 0.00046015315 -0.00217677 0.0016408339 0.002835231 0.0016819573 -0.0013917632 0.0007805498 -0.002215317 0.0018576423 0.003103594 0.0018928599 -0.0039038057 0.00035984124 -0.0019361916 0.00053936266 0.0005440551 -0.0015471252 0.0037818416 0.0030533713 0.00016317025 -0.0013916243 -0.002834126 0.0022654948 0.0027906846 -0.0025443546 -0.0018895697 -0.0026828824 0.0001432341 -1.8665325e-05 -0.0002778382 -0.000269118 0.00353079 0.0014518634 0.003955378 -0.0036736212 0.0007162767 -0.0041172113 0.002204166 0.0040370924 -0.0016856631 -0.0009532501
Cyclobutanone -0.0024724184 0.002647563 -0.0018996232 -0.00088191585 0.002332968 0.0003807664 0.0023907484 -1.4939297e-05 0.0032780906 0.003623774 -0.00032366288 0.001287299 0.0026024827 0.0024949978 -0.001711372 -0.00031486835 0.00033124848 0.0019946252 0.0004327469 -0.0030389584 -0.0010570826 0.0023008701 0.0018395417 -0.0020119315 0.0013422265 -0.0024158028 0.00043113373 -0.0008916205 -0.0011904645 0.0034271996 -0.0018255636 -0.00072892354 -0.0032106452 -0.0019866666 -0.0030344788 -0.00060009345 0.0014846253 -0.00328199 -0.0008164283 -0.0020635251 0.0032589228 0.0024085839 0.0011534397 8.835783e-05 -0.0009939922 0.0009129887 -0.001204113 -0.0015121456 -0.0034872124 0.0007109026 -0.0026687249 0.0033242865 -0.0034187385 0.001757215 6.507004e-05 -0.0018049267 0.000104751554 0.0014628654 0.0015910099 0.0006693223 -0.0019653407 0.0011855906 0.0021505982 0.0019725855 -0.00078376697 0.0007556889 -0.0029579205 0.002303511 0.0027689473 0.0020447653 -0.0037263716 7.412338e-05 -0.0015366429 0.0009337807 0.000101733036 -0.0010272787 0.0034833865 0.0030819846 -0.00042229018 -0.0009908199 -0.0028184536 0.0015480875 0.0031673345 -0.00289769 -0.0020509008 -0.0029492523 0.0001837448 -0.0001931019 -0.00087834394 -0.0010832214 0.0035970777 0.0016243849 0.003963675 -0.0027322466 0.0007069056 -0.003301355 0.0018603967 0.0034452393 -0.0017947454 -0.00054039236
Furan, 2,3-dihydro- 0.0002148161 0.0024535346 0.0014978272 -0.00028727492 0.0025861429 0.00011923946 0.0022582188 -0.0011207884 0.0034453198 0.00274541 -0.000617552 -0.00030295108 0.0023503024 -4.15097e-05 -0.0016388868 -0.0021475502 0.00040775407 0.0047810674 0.0014485691 -0.0030450523 -0.001624446 0.001967386 -0.0020762887 -0.000645989 -0.00035788745 0.00013057869 -0.003423017 -0.0012902832 -0.00050802395 0.003526513 -0.0028755472 -0.0012580985 -0.0015899752 -0.0040618205 -0.0012867593 0.00013571372 0.001170953 -0.0025984237 -0.0020154174 0.0013012274 0.0040112087 0.0006324551 0.0016618734 -0.0023291653 0.0010169742 -0.0020780487 -0.003921953 -0.004470162 -0.0026134965 0.00058624847 0.00055324595 0.0014870365 -0.002755351 0.0042344187 -0.0018727602 0.0016375665 0.0018095643 -0.0007011437 -0.0012072537 -0.002638623 0.00013620137 0.0034579535 0.0033908028 0.0015750058 -0.0012850467 0.0008091849 -0.0025108696 -0.0014775536 0.0025175621 -0.0011180105 -0.0040517487 0.00061981304 0.00036321997 -0.0015620847 0.0029681008 -0.0021052738 0.0050694062 0.002781023 -0.0019505381 -0.0026622207 -0.0014745397 0.0024018707 0.0020976102 -0.0031279542 0.00014812173 -0.0013077249 6.89676e-05 -0.00042682383 -0.0020263828 -0.0035892602 0.00091180764 -0.0012630838 0.0029947693 1.6075792e-05 0.0011975202 -0.0012230165 -0.0012494933 -0.0011593059 -0.003773988 -0.00076185865
1,3-Butadiene-2-ol -0.0028026546 0.0029528546 -0.0023898424 -0.00083372946 0.0020499495 0.00023663568 0.0021341871 -0.00016690564 0.0036461228 0.0034245676 -0.0005264536 0.001088192 0.0029469356 0.0020720558 -0.0017563835 -0.00061197614 0.0005231385 0.0022294354 0.00015951692 -0.0032699024 -0.00020380916 0.0024071482 0.0018987262 -0.0019272559 0.0022645236 -0.0026032273 0.0005691769 -0.0016653703 -0.0009999471 0.003437445 -0.0027061626 -0.00080763374 -0.0031581759 -0.0021844474 -0.0031989054 -0.00046518486 0.0012472114 -0.0029244607 -0.0011546136 -0.0021524446 0.0034018024 0.0028139912 0.0012124784 0.0010726767 -0.001602109 0.0012810945 -0.0015247323 -0.001608564 -0.0031239544 0.0013396132 -0.0027306392 0.0032877892 -0.0032737586 0.0017051616 -0.0002143119 -0.0018807547 0.00042119515 0.0006699117 0.0017982507 0.0013622297 -0.0023175585 0.0019977621 0.0025961585 0.0017783141 -0.0014640943 0.0007135739 -0.0021764124 0.0016925703 0.0032818243 0.0016617712 -0.0037975523 -0.0003971003 -0.0017749312 0.00017952308 0.00015297416 -0.0017757294 0.0032040668 0.003221339 -0.00025386346 -0.0014768397 -0.0030120616 0.0016040191 0.003029809 -0.0028165756 -0.0019131878 -0.002291769 0.0003047337 0.000119517346 -0.0010252922 -0.0013129695 0.0031317133 0.001269995 0.0031522699 -0.003287719 0.0004078187 -0.0028919345 0.001767773 0.003319253 -0.0019682487 -0.0005426111
Acetic acid ethenyl ester -0.0017617703 0.0019287529 -0.00038485613 -0.0007935655 -0.0004958851 -0.0015896506 0.002029687 -0.0015665492 0.001205577 0.0028593526 -0.00080250413 -0.0002383297 -0.00020047506 -0.00071515504 0.00042651733 0.00033818462 0.0006115042 0.0023263532 -0.0002973367 -0.00083870656 -0.00016917133 0.00096047 0.0008215288 -0.00097350334 0.0014899874 -0.0009623019 0.00012997631 -0.0012990953 -0.0020636914 -0.00029566445 0.00072867156 -0.0010589694 -0.00066907494 0.00046241822 -0.0005081459 -0.00037462995 0.0010572589 0.00014870132 0.00065101683 -0.0014677213 0.001554207 0.00041320123 0.0013931461 0.00011434722 -0.0010399764 0.00071604276 0.00028712171 -0.002405824 -0.0013117181 0.0009660247 -0.0017908892 0.0015094575 -0.0007378306 0.0012389635 -0.001333943 -0.00048611654 -0.001609376 0.0009959992 0.00043655818 0.00066229125 -0.00077332364 0.0019760432 0.0008653376 0.0012325059 0.0007587579 -0.00016341172 0.00065787195 0.0016782562 0.00057386677 0.0002627831 -1.8168034e-06 -0.00047578683 -0.0013001946 -0.00027278365 0.0001319204 -5.471955e-05 0.0011911535 0.0032388344 0.001608793 0.0001542768 -0.0012773706 -8.1173144e-05 0.00012712885 -0.00026191524 0.0017155478 -0.0019082787 -0.00068409456 0.00069644797 -0.0002628124 -0.00059870863 0.0027468083 0.0021977343 -0.0007909718 -0.0014448176 0.0008914038 -0.0027548845 0.0022639702 -3.395835e-05 -0.0007964676 -0.0019980122
Butyrolactone -0.0030524507 0.0024478284 -0.0029066817 -0.00049534964 0.0017764056 0.00063621067 0.0024061752 0.00050039846 0.0041519306 0.003503079 -0.00033084382 0.0014669521 0.0028646933 0.002005953 -0.0018566203 -0.0005278831 0.00056099973 0.0017592626 -0.00013383203 -0.003057004 -0.0010146424 0.0020094758 0.0016001833 -0.0022126848 0.0018269108 -0.0020433308 0.00088157854 -0.0014765172 -0.00097034173 0.0032510078 -0.0023283204 -0.0009679873 -0.0032209475 -0.0026633604 -0.003174125 -0.0007082176 0.0014641569 -0.0032885824 -0.0008316344 -0.0019488715 0.0032816888 0.0026121603 0.0008517487 0.00062855036 -0.001744716 0.0007770767 -0.0012504254 -0.0013480274 -0.0023331807 0.0009923149 -0.0029520984 0.0033166385 -0.0032762093 0.0012683163 -0.00062606065 -0.0018270407 -0.00011540763 0.00129495 0.001684899 0.0011576284 -0.0024391157 0.0015011615 0.0018411594 0.0017495609 -0.0012331728 0.00033566478 -0.0025310172 0.0017271123 0.002702997 0.0016565266 -0.0032649068 -6.262913e-05 -0.0016457422 0.0002477185 0.0005901948 -0.0012470492 0.003156677 0.003253189 -5.6861456e-05 -0.0012521136 -0.0033440483 0.002164613 0.0030042182 -0.0025822215 -0.0016615475 -0.002276126 0.00031252386 0.00052689563 -0.001229723 -0.0010922868 0.0030276484 0.0013211368 0.0038682362 -0.0029149165 0.0006482882 -0.0035097073 0.0020724512 0.003751935 -0.0024052644 -0.00032373884
2-Propenoic acid, 2-methyl- -0.0021724917 0.0025779826 -0.0017877028 0.00071670517 0.0003622049 0.00014163414 0.00042938854 -0.0014365145 0.0016426652 0.00075880846 0.00036969883 0.0013934221 -0.00023167228 0.00019395599 -0.00015889315 -0.0011027147 -0.0005879664 0.0012750786 0.00097092293 -0.00080814963 0.00020187469 0.0014224576 0.00083776313 -7.128942e-05 9.909126e-05 -0.0023454987 -0.0011305023 0.0009443209 -0.0006679165 0.0025121053 -0.0012662266 0.0005220511 -0.00086031883 -1.2719871e-05 -0.001702363 -2.9102335e-05 0.0016075532 -5.574192e-05 -0.00018979976 -0.0012477094 0.001791716 0.0001262628 0.0011746993 0.00046063203 -0.0006928508 0.0012038586 0.00071327126 0.0003106563 -0.0029795384 0.00067796424 -0.0007610453 0.00080322684 -0.0020646427 0.0020127958 -0.0011523044 2.0925156e-05 -0.00036706208 -9.58025e-06 -0.0007932059 -0.00016237167 0.00036087382 -4.4055683e-05 0.0018088033 -0.00035850026 -0.0022266065 -0.0011564768 -0.00047235814 0.0011706261 0.00039272345 -0.00024959721 0.0002268167 -0.00082082197 -0.0011994271 -0.0016734161 0.000742589 0.00049182976 0.0009031711 0.000956005 -0.00056266825 -0.0009557242 -0.0009591269 0.0018106826 0.0021862814 -0.0012785898 -0.0010790952 -0.0015972287 -0.0014256644 0.0007900145 0.0004859296 -0.0014959567 0.00092353235 0.00025402108 0.0022810113 -0.0010848967 0.000603279 -0.003091901 0.0011612067 0.0025141644 -0.00021010771 -0.00067156984
2,3-Butanedione -4.6335474e-05 -0.00016998655 -0.0019205342 -0.004007617 0.0052978685 -0.0014118073 0.003048023 -0.0005985658 0.005668986 0.0026921146 -0.0016476456 -0.0020583665 0.0031686227 -5.5625103e-05 -0.004088874 -0.0006996774 0.0019164052 0.0043343646 -0.0014962483 -0.0032630283 0.00020690954 0.00084887276 0.0018514384 -0.0021845996 -0.0011955852 -0.0017605859 0.0005172219 0.0015971912 0.000321011 0.0038025163 -0.0011696955 0.0006757742 -0.001241051 -0.00038303947 -0.0022343372 -0.0019534326 -0.0011654997 0.00030197235 -0.0021184138 -1.9710977e-05 0.004361402 0.005561579 -3.220506e-05 0.0011069606 0.0013181611 0.0003121248 -0.0023147268 -0.0005875478 -0.0044726757 -0.0010025064 -0.0030308096 0.0021346451 -0.0031733185 -0.00019216351 -0.0004323671 8.6916305e-05 -0.00080477283 -0.00084899133 -0.00048985396 0.0022424213 -0.0037724709 0.0022434266 0.0005244475 0.0048276614 0.0011623115 -0.002153561 -0.0032749395 0.0033341106 0.0013061338 0.0035126265 -0.005340091 -0.0028833924 -0.0044202222 0.00017477295 0.002630856 -0.0024614127 0.003451171 0.0052229064 0.0007288728 0.0012344377 -0.004538973 0.0027429087 0.0056388713 -0.0043596616 -0.0014624544 -0.0044137845 1.2481061e-05 -0.000510019 0.0018432557 0.002112552 -0.0003593586 -0.00016715952 0.003298406 -0.00565511 0.0023109175 -0.004566369 0.0023914713 0.0051876768 -0.0042494396 0.0028865198
2-Propenoic acid, methyl ester -0.00013453889 0.000391251 -0.00016534877 -0.001260011 0.00013329931 -0.0011604973 0.0010160992 0.00077343296 0.0019982636 0.0025028144 -0.0022063057 -0.0008555846 0.00018093699 0.00045896988 9.862732e-05 -0.00061969965 -0.0011685552 0.0017147305 -0.0006226277 -0.0008391178 -0.0011235371 0.0010835971 0.0010369943 -0.0020978227 0.0004343676 -0.0012007722 9.5221316e-05 -0.001796411 0.00027334172 0.0015703508 0.0010467509 0.0007459594 -0.0010750439 -0.0004583887 0.001378272 -0.00012772603 0.0014374206 -0.0011277625 0.0021775046 -0.00038235562 0.00073017017 0.0023777622 0.00046578993 -0.00077032 -0.0007184095 0.0008840847 0.00042326338 -0.0010029938 -0.0015323026 0.002249683 -0.00037130178 0.0017729998 -0.0035041363 0.0006798997 -0.0026822889 -0.0012085132 0.00020892017 -0.00013473195 0.0005749155 0.0010428377 -0.0016995565 0.0019335863 -0.00078599586 0.0012122898 0.000102916165 0.0005116908 0.0014801078 0.0021660523 -0.00054172956 0.0016935702 -0.0013034911 -1.2347475e-05 -0.0015707326 -0.0010418807 0.0027615912 -0.00042638162 0.0020459697 0.0028768976 -0.0004847412 -0.0009861737 0.00057957415 -0.00054002705 -0.00047362316 0.00081625045 -0.0005776487 -0.0035171513 -0.00071773457 -3.0965311e-06 -0.0026671449 0.0015399735 0.0024160035 0.0011685365 0.0008875885 -0.00077064283 -0.00046476023 -0.003719672 0.0013473462 0.0023124404 -0.0015196083 -0.0012859686
Ethanedioic acid, dimethyl ester -0.0016551948 0.0022121842 -0.00049876235 -0.0025987853 0.0020976635 -0.0010276244 0.0012771616 -0.0015500984 0.0026363614 0.00362495 0.00018254937 -0.0003499153 0.0013116958 0.0006882961 0.0018919164 -0.0015063978 6.7629026e-06 -6.993353e-05 -0.00067854096 -0.0011619639 0.00091886026 0.00088547077 0.0019791226 -0.0017615623 0.0003942185 0.0015566375 7.305465e-05 0.00013811355 -0.0006418048 0.00042916613 0.0010972401 0.0014333355 -0.0021220557 0.0018430777 -0.0018795574 0.001230057 0.0006251346 -0.0011274213 -0.0010116505 0.0006004122 0.00087879266 0.001317392 -0.00048506013 0.0018539402 -0.0022316864 -0.00045596986 0.00037915944 0.00064977194 -0.0026660482 -0.0011491444 -0.00026243637 0.001954386 -0.0036443034 -0.00049913285 -0.0023313367 0.0014313847 -0.00014509163 0.0003027128 -0.0005351277 -0.000605136 -0.00022790204 0.0023971251 -0.0024915482 -0.00043288385 2.0038648e-05 4.9962662e-05 -0.0014941838 0.0005266924 -0.00011425838 -0.00016958955 0.0004074759 -0.00073829415 -0.00080165936 -0.000580948 -0.0006080125 -0.0010432665 0.0022777726 0.0027644734 0.0011010492 0.000933859 -0.00043507147 -0.00081931264 0.0012046542 0.000912469 -0.0006808061 0.0010776727 -0.00047271332 0.0018368291 -0.003090154 0.0019489885 0.0031076586 0.00017897256 0.00015466707 -0.0028825996 -0.0008644293 -0.003782553 0.00021062647 1.0047444e-05 -0.00024833085 -0.0013809
2-Butanone -0.0032961457 0.0025743404 -0.0025044298 -0.0006170261 0.0022081663 0.0004901982 0.0020506026 -0.00019514989 0.003914681 0.003274844 -0.0003773101 0.0014163986 0.0031607342 0.002473928 -0.0016791311 -0.00032043376 0.00047826843 0.0017149908 0.00041810225 -0.0036186406 -0.0010154562 0.0020806487 0.0021106158 -0.0017478685 0.0018391608 -0.0022512227 0.0002835362 -0.001435587 -0.00059269334 0.0028832024 -0.002234223 -0.0012463133 -0.0027963468 -0.0019061805 -0.0034161299 -0.00045530254 0.0011676648 -0.003519971 -0.0007777207 -0.00285323 0.0033563008 0.002540211 0.0013916341 0.00042006266 -0.0011339546 0.0007698595 -0.0017597103 -0.001816123 -0.002802665 0.0008947245 -0.002531065 0.0032600507 -0.003285959 0.001676143 0.00025108148 -0.0022830027 0.0003644132 0.0008389586 0.0011739556 0.00076222175 -0.002151644 0.0011783907 0.0019646354 0.0018657418 -0.0011464456 0.00072674477 -0.002373497 0.0022972403 0.0031156081 0.0017752021 -0.0039174007 0.00039358123 -0.0018028402 0.00065422984 0.0006696574 -0.0017269979 0.0033255003 0.0031721964 0.00037888423 -0.0013423972 -0.003161428 0.002065593 0.0026052461 -0.002954483 -0.0016947107 -0.0023534703 0.00020151415 0.00029162018 -0.0013311313 -0.0010865092 0.0032798618 0.0017662314 0.003554835 -0.0032805689 0.00091717835 -0.0035303915 0.0018997036 0.0030614138 -0.001392018 -0.00054561644
Butanal -0.00299447 0.0026686313 -0.0027134854 -0.000705761 0.0017947954 0.00027656025 0.0022571813 6.3510495e-05 0.0039007121 0.003253757 -0.0012307832 0.00069603894 0.0034611407 0.0026627972 -0.00114611 -0.001224941 0.00021876323 0.0017232846 0.00041193748 -0.0034493194 -0.00023885984 0.0026390431 0.0017476887 -0.0026440588 0.0011953535 -0.0021561577 0.001352069 -0.0014606526 -0.00026546884 0.0030314212 -0.002676389 -0.0011119237 -0.0023911109 -0.0014469826 -0.0027986453 0.00041448598 0.0012203883 -0.0027501327 -0.0016212978 -0.0027266012 0.003214863 0.0028710212 0.0013175136 0.00074274465 -0.001865133 0.00093730487 -0.002216105 -0.0018305157 -0.0021776292 0.00074490905 -0.0022617632 0.0029541934 -0.0033596798 0.0014406885 -0.00044843525 -0.0013221339 0.00040416975 0.0011141578 0.0022620026 0.0011551591 -0.0019232732 0.0012683447 0.003003087 0.0017355843 -0.001392669 0.00051337434 -0.0015125477 0.0022491221 0.0025380605 0.0020291873 -0.0037245646 0.00043711194 -0.0019382273 -8.369102e-05 0.00020712 -0.0012066434 0.0037367528 0.0031439527 -0.00054365373 -0.001976252 -0.00260363 0.0017970758 0.0026698045 -0.0028824871 -0.0015783304 -0.0027983766 0.00058550574 4.1457515e-05 -0.0007358376 -0.0006051692 0.0036383912 0.0011669256 0.003078657 -0.0028189425 0.00031458773 -0.0031332737 0.0025356621 0.0033574875 -0.0015306526 -5.2726053e-05
Ethene, ethoxy- -0.0016285034 0.0017292615 -0.0016174838 -0.00056990207 0.0006957151 -0.00041254572 0.0012837492 -0.0005912843 0.0019281845 0.002401475 0.00050776673 0.00058713806 0.0019007943 0.001182842 -0.0011138095 -0.00056982925 0.00028254272 0.0011668013 0.00085702055 -0.0016837366 -0.00023105352 0.0019413198 0.00079894887 -0.0013944416 0.00031335084 -0.0014248469 0.0012777239 -6.463048e-05 -0.0002870383 0.0026372056 -0.0012312043 0.00012619774 -0.0022566298 -0.00014117025 -0.001785858 -6.2781204e-05 0.0015710231 -0.002617565 -0.00026528948 -0.0011004399 0.0024556534 0.0018942828 0.00059312826 5.7759207e-05 -0.0005089102 8.8190754e-05 -0.00049296697 -0.001015674 -0.0022207114 0.0005225382 -0.001694037 0.0023654231 -0.0016102551 0.001566891 4.0316838e-05 -0.0014564705 0.00067314145 0.0010037224 0.0008113595 0.0012063492 -0.0005461351 0.001136975 0.0021138487 0.0014547621 -0.00053165574 1.8948282e-05 -0.0012523985 0.0022165612 0.0007106567 0.001199439 -0.0024159262 -0.0002904626 -0.0004109173 0.00027392627 -0.0004289469 -5.8782985e-05 0.0023119058 0.0023560037 -0.00012878736 -0.0003823767 -0.002291961 0.00082592026 0.001725659 -0.0015723732 -0.0015118578 -0.0009027159 -0.0001824797 0.00027709245 -0.0012274114 0.000121741556 0.001672103 0.0011708745 0.0025752066 -0.0020779034 0.00056583853 -0.002261086 0.0013260249 0.00205434 -0.0011962494 -0.00045537433
Propanal, 2-methyl- -0.0022379353 0.00065200665 -0.0011052702 0.000104137835 0.0030641912 -0.0011092046 0.0017206529 -0.0012696214 0.00084307045 0.0011016101 0.00033643693 1.4122389e-05 0.0030924422 0.00054162013 -0.0018306036 -0.0011459676 0.0005491029 -0.00031481005 0.0014031293 -0.00032935143 -0.0014742644 -0.0004768923 0.0014700651 -0.000288618 0.0020420048 -0.001206755 -6.4117e-05 -0.00085512456 -0.00022608336 0.001101504 -0.002483475 -0.0006884612 0.00049170153 0.0002373931 0.00057243725 0.0017678514 0.0006846416 -0.0037719465 -0.0015992428 -0.002595204 7.495489e-05 0.003433381 0.0018240231 -0.00010320742 -0.0006401397 0.0010194172 -0.0014727407 -0.002048873 -0.0037345574 -0.00022840864 -0.0018626396 0.0027454915 -0.00027752557 0.0032040146 -0.0009606704 0.0004934665 0.0006914269 -8.041505e-05 0.0020381827 0.0009976019 0.00051922677 0.0009767729 0.001476907 0.0014063527 -0.0013739573 -0.0005296771 0.00013011355 -0.00035141697 -0.0001466578 0.0010128397 -0.0030415717 0.0003151747 0.0008025314 0.0015710613 -0.0014109741 0.00044000242 0.0023571514 0.0034596089 0.0011672246 -0.0010000435 -0.0004867932 0.0013224354 -0.00010000113 -0.0013747591 0.0013466586 -0.0031931475 -0.0009307251 0.00065555115 0.00010014186 -0.00015714158 0.00029408932 -0.00088278577 0.0011128756 -0.0021201815 0.0017346777 -0.0012237846 -0.0003973824 0.0039714505 -0.0033965786 -0.0002599653
Cyclobutanol 0.00039971247 0.0015723569 -0.0027791893 -0.0034249201 0.0007135089 0.00054209743 0.0045860126 0.002623146 0.0028507984 0.003390456 0.0018726363 0.00045215315 0.005202283 0.0032098335 -0.0037532016 0.0022611585 -3.6387646e-06 0.0025019525 -0.0026060152 -0.0010547963 -0.0021754352 0.0026070331 0.0021448133 -0.00011863699 -0.0004192164 -0.0012444824 -0.0011779907 0.001416319 -0.0026038107 0.00212402 -0.0033371686 0.0011882647 -0.00288032 0.0011896108 -0.004888119 -0.0035187649 0.0039162645 -0.0008511668 -0.0022419477 0.00026782852 0.0014175329 0.0022439621 0.00074900984 0.003063052 -0.0006009469 0.0036150739 -0.0014425495 -7.6185446e-05 -7.972836e-05 0.0028475625 -0.0020476026 0.0007819714 -0.0055315993 0.0007704764 -0.0010544279 -0.004514948 -0.00276661 0.003960104 -0.00047320826 -0.00031973957 -0.0009302936 0.003005167 0.0029757805 0.00015008435 -0.0011352676 -0.001993013 -0.0037119684 -0.0010536474 0.004277681 0.0009101229 -0.0025187691 -0.0018424774 -0.004405843 0.0032914318 -0.001294839 -0.0018793991 0.0065819947 0.0035896979 -4.7766567e-05 -0.0017999585 -0.0056518465 0.00074703223 0.00026702508 -0.0031184396 0.0010560574 -0.003946543 0.0027690304 -0.0008192874 -0.0010705547 0.0013636731 0.0008495531 0.003677092 0.004802006 -0.002703405 0.0010972178 -0.0035551803 8.005898e-05 0.000709263 -0.0031052958 -0.0035958036
